LabVIEW Measurement,
Writer_Version,2
Reader_Version,2
Separator,Comma
Decimal_Separator,.
Multi_Headings,No
X_Columns,One
Time_Pref,Absolute
Operator,DAQ14
Date,2025/11/04
Time,14:02:08.6911048999999396694
***End_of_Header***,
,
Channels,2,,
Samples,100,100,
Date,2025/11/04,2025/11/04,
Time,14:02:08.6911048999999396694,14:02:08.6911048999999396694,
Y_Unit_Label,Volts,Volts,
X_Dimension,Time,Time,
X0,0.0000000000000000E+0,0.0000000000000000E+0,
Delta_X,0.000620,0.000620,
***End_of_Header***,,,
Time,Voltage_1,Voltage_2,Comment
0.000000,-4.064151E-6,-1.047341E-6
0.000620,-3.674112E-6,-7.230222E-7
0.001240,-2.176479E-6,-2.502311E-6
0.001860,-3.656247E-6,-9.313002E-7
0.002480,-3.045880E-6,-1.922108E-6
0.003100,-1.470836E-6,-2.532065E-6
0.003720,-1.658412E-6,-2.585623E-6
0.004340,-1.167141E-6,-3.323522E-6
0.004960,-4.138586E-7,-3.686521E-6
0.005580,-1.164163E-6,-3.546677E-6
0.006200,-1.098661E-6,-3.055736E-6
0.006820,-6.937342E-7,-3.912651E-6
0.007440,3.275140E-8,-4.510706E-6
0.008060,-8.187850E-7,-4.814197E-6
0.008680,-7.651918E-7,-3.862069E-6
0.009300,-1.363649E-6,-4.094150E-6
0.009920,-2.709434E-6,-3.576431E-6
0.010540,-7.890110E-7,-2.668934E-6
0.011160,-3.519287E-6,-1.999469E-6
0.011780,-2.554609E-6,-1.511503E-6
0.012400,-2.387875E-6,-1.812019E-6
0.013020,-3.215592E-6,-2.177993E-6
0.013640,-3.647315E-6,-5.802030E-7
0.014260,-4.418462E-6,-1.597790E-6
0.014880,-3.147112E-6,-9.402264E-7
0.015500,-4.329140E-6,-1.190160E-7
0.016120,-4.141563E-6,4.760640E-8
0.016740,-2.355123E-6,-1.094947E-6
0.017360,-4.817433E-6,-1.407364E-6
0.017980,-1.911491E-6,-2.719516E-6
0.018600,-2.313440E-6,-3.243186E-7
0.019220,-2.215186E-6,-8.420382E-7
0.019840,-6.014348E-7,-3.314596E-6
0.020460,-1.595886E-6,-2.707614E-6
0.021080,-7.860336E-7,-3.516923E-6
0.021700,-5.418868E-7,-2.734393E-6
0.022320,-7.413726E-7,-4.007864E-6
0.022940,-4.466100E-8,-3.079539E-6
0.023560,1.143322E-6,-4.376813E-6
0.024180,-5.031806E-7,-3.201530E-6
0.024800,-1.875762E-7,-3.992987E-6
0.025420,-1.009339E-6,-3.647840E-6
0.026040,3.900394E-7,-4.326232E-6
0.026660,-1.369604E-6,-1.966739E-6
0.027280,-2.346191E-6,-2.344615E-6
0.027900,-1.387468E-6,-1.951862E-6
0.028520,-3.688999E-6,-8.569152E-7
0.029140,-3.495468E-6,-1.728707E-6
0.029760,-2.384897E-6,-1.121726E-6
0.030380,-3.700908E-6,-4.701132E-7
0.031000,-2.593315E-6,-3.838266E-7
0.031620,-3.906349E-6,-1.505552E-6
0.032240,-4.784682E-6,5.296212E-7
0.032860,-4.001626E-6,-5.861538E-7
0.033480,-3.549061E-6,-1.362733E-6
0.034100,-2.846394E-6,-1.934010E-6
0.034720,-2.843417E-6,-5.028426E-7
0.035340,-1.786440E-6,-1.315127E-6
0.035960,-4.644744E-7,-3.582382E-6
0.036580,-8.098528E-7,-3.305669E-6
0.037200,-1.637570E-6,-2.927794E-6
0.037820,-6.877794E-7,-3.314596E-6
0.038440,-8.009206E-7,-2.091706E-6
0.039060,-1.994858E-7,-3.998938E-6
0.039680,-4.198134E-7,-3.040859E-6
0.040300,1.071864E-7,-4.007864E-6
0.040920,-6.103670E-7,-3.817438E-6
0.041540,1.173096E-6,-2.523139E-6
0.042160,-1.837056E-6,-2.826630E-6
0.042780,-1.077819E-6,-3.228309E-6
0.043400,6.044122E-7,-4.650550E-6
0.044020,4.704292E-7,-4.534510E-6
0.044640,-7.890110E-7,-1.309176E-6
0.045260,-3.161999E-6,-2.457680E-6
0.045880,-2.783869E-6,-1.916158E-6
0.046500,-2.986332E-6,-6.486372E-7
0.047120,-3.156044E-6,-1.713830E-6
0.047740,-3.882530E-6,-3.600234E-7
0.048360,-2.768982E-6,-1.639445E-6
0.048980,-4.751930E-6,-1.571011E-6
0.049600,-3.879552E-6,-1.996493E-6
0.050220,-2.929762E-6,-1.097923E-6
0.050840,-2.700502E-6,-1.728707E-6
0.051460,-2.274734E-6,-2.175017E-6
0.052080,-2.703479E-6,-2.142288E-6
0.052700,6.848020E-8,-3.933479E-6
0.053320,-1.706050E-6,-2.540992E-6
0.053940,-5.657060E-7,-4.195314E-6
0.054560,-6.133444E-7,-2.737368E-6
0.055180,-3.215592E-7,-3.133096E-6
0.055800,4.763840E-8,-4.031667E-6
0.056420,-9.706324E-7,-3.365177E-6
0.057040,6.312088E-7,-4.355986E-6
0.057660,2.977400E-8,-3.743053E-6
0.058280,-1.021248E-6,-3.049785E-6
0.058900,-1.512519E-6,-1.919133E-6
0.059520,4.138586E-7,-3.564529E-6
0.060140,-1.429152E-6,-3.269965E-6
0.060760,-1.819191E-6,-1.285373E-6
0.061380,-5.984574E-7,-2.966474E-6
0.062000,-3.135202E-6,-1.883428E-6
0.062620,-3.066722E-6,-1.803092E-6
0.063240,-2.792801E-6,-2.053026E-6
0.063860,-2.905942E-6,-2.945646E-7
0.064480,-4.355936E-6,-1.785240E-6
0.065100,-3.370417E-6,-2.023272E-7
0.065720,-3.953987E-6,-3.659742E-7
0.066340,-3.659225E-6,-9.997344E-7
0.066960,-2.021655E-6,-2.517188E-6
0.067580,-2.069293E-6,-2.103608E-6
0.068200,-3.376372E-6,-3.868020E-8
0.068820,-3.054812E-6,-9.670050E-7
0.069440,-2.381920E-7,-3.142022E-6
0.070060,-1.250508E-7,-3.064662E-6
0.070680,-1.327920E-6,-1.365709E-6
0.071300,2.381920E-8,-3.969184E-6
0.071920,-1.077819E-6,-2.975400E-6
0.072540,4.168360E-8,-3.272940E-6
0.073160,-5.329546E-7,-3.984061E-6
0.073780,-1.697118E-7,-3.266989E-6
0.074400,5.478416E-7,-3.865045E-6
0.075020,-9.765872E-7,-3.841241E-6
0.075640,-1.845988E-6,-3.005154E-6
0.076260,-8.813104E-7,-2.582647E-6
0.076880,-3.141157E-6,-3.153924E-6
0.077500,-3.989716E-6,-2.380320E-7
0.078120,-2.009745E-6,-1.199086E-6
0.078740,-2.551632E-6,-1.225865E-6
0.079360,-2.414671E-6,-2.103608E-6
0.079980,-2.221140E-6,-1.672175E-6
0.080600,-2.977400E-6,-5.831784E-7
0.081220,-3.450807E-6,-1.356782E-6
0.081840,-3.364462E-6,-1.841773E-6
0.082460,-3.817027E-6,-2.826630E-7
0.083080,-2.688592E-6,-2.302960E-6
0.083700,-3.167954E-6,-6.159078E-7
0.084320,-1.792395E-6,-9.789066E-7
0.084940,-1.646502E-6,-2.237501E-6
0.085560,-1.703073E-6,-2.740343E-6
0.086180,-2.512926E-6,-1.332979E-6
0.086800,-1.107593E-6,-3.112268E-6
0.087420,-1.310056E-7,-3.674619E-6
0.088040,-7.651918E-7,-2.210722E-6
0.088660,-6.192992E-7,-2.781999E-6
0.089280,2.471242E-7,-3.222358E-6
0.089900,-1.122480E-6,-4.070347E-6
0.090520,4.704292E-7,-3.951331E-6
0.091140,-7.443500E-7,-3.981085E-6
0.091760,-7.145760E-8,-3.287817E-6
0.092380,-1.467858E-6,-3.121195E-6
0.093000,-1.491677E-6,-2.799851E-6
0.093620,-2.337259E-6,-2.169067E-6
0.094240,-3.864665E-6,-1.701929E-6
0.094860,-1.512519E-6,-1.267520E-6
0.095480,-2.590338E-6,-1.612667E-6
0.096100,-2.256869E-6,-2.606450E-6
0.096720,-2.879146E-6,-2.112534E-6
0.097340,-2.346191E-6,-2.936720E-6
0.097960,-3.322778E-6,-2.469582E-7
0.098580,-2.075248E-6,-1.565060E-6
0.099200,-3.787253E-6,-1.684076E-6
0.099820,-3.492490E-6,-2.915892E-7
0.100440,-3.179863E-6,-1.612667E-6
0.101060,-1.813237E-6,-3.519898E-6
0.101680,-3.400191E-6,-9.313002E-7
0.102300,-2.828530E-6,-9.997344E-7
0.102920,6.044122E-7,-2.930769E-6
0.103540,-1.625660E-6,-2.686786E-6
0.104160,9.259714E-7,-3.876946E-6
0.104780,-4.972258E-7,-3.502046E-6
0.105400,-1.875762E-7,-4.430371E-6
0.106020,-2.798756E-7,-4.097126E-6
0.106640,1.387468E-6,-4.802296E-6
0.107260,-6.341862E-7,-4.683280E-6
0.107880,-1.238598E-6,-4.219117E-6
0.108500,-3.066722E-7,-3.174752E-6
0.109120,1.744756E-6,-3.243186E-6
0.109740,1.994858E-7,-3.207481E-6
0.110360,-1.393423E-6,-2.540992E-6
0.110980,-3.691976E-6,-1.142554E-6
0.111600,-3.962919E-6,-1.838797E-6
0.112220,-2.212208E-6,-3.195580E-6
0.112840,-3.069699E-6,-6.932682E-7
0.113460,-2.170525E-6,-1.687052E-6
0.114080,-3.912304E-6,-3.034908E-7
0.114700,-2.408717E-6,-1.145529E-6
0.115320,-4.311275E-6,8.003826E-7
0.115940,-3.078632E-6,-8.271612E-7
0.116560,-2.864259E-6,-1.496626E-6
0.117180,-1.920423E-6,-3.094416E-6
0.117800,-2.897010E-6,-1.651347E-6
0.118420,-5.064557E-6,-6.367356E-7
0.119040,-9.825420E-7,-2.862335E-6
0.119660,-6.252540E-7,-3.094416E-6
0.120280,-8.515364E-7,-2.651081E-6
0.120900,-2.977400E-7,-3.936454E-6
0.121520,-8.038980E-8,-3.106318E-6
0.122140,-1.488700E-7,-3.954307E-6
0.122760,6.252540E-8,-3.719250E-6
0.123380,-2.888078E-7,-2.582647E-6
0.124000,3.364462E-7,-3.924553E-6
0.124620,8.574912E-7,-4.885607E-6
0.125240,2.530790E-7,-2.567770E-6
0.125860,1.598864E-6,-4.341109E-6
0.126480,-4.049264E-7,-3.632963E-6
0.127100,-1.220734E-6,-1.829871E-6
0.127720,-3.263230E-6,-1.199086E-6
0.128340,-2.346191E-6,1.011636E-7
0.128960,-2.643931E-6,-1.228840E-6
0.129580,-3.141157E-6,-1.609691E-6
0.130200,-2.825553E-6,-2.552893E-6
0.130820,-2.929762E-6,-3.987036E-7
0.131440,-2.804711E-6,-1.398438E-7
0.132060,-2.545677E-6,-2.053026E-6
0.132680,-2.602248E-6,-1.553159E-6
0.133300,-2.334282E-6,-2.056001E-6
0.133920,-3.388281E-6,-1.487700E-6
0.134540,-1.140344E-6,-1.517454E-6
0.135160,-2.277711E-6,-2.478508E-6
0.135780,-2.090135E-6,-1.103873E-6
0.136400,-1.330898E-6,-2.704639E-6
0.137020,-9.051296E-7,-3.516923E-6
0.137640,-7.473274E-7,-3.165826E-6
0.138260,-3.453784E-7,-2.374369E-6
0.138880,3.632428E-7,-3.365177E-6
0.139500,-4.555422E-7,-2.776048E-6
0.140120,5.002032E-7,-4.355986E-6
0.140740,-4.168360E-7,-4.436321E-6
0.141360,-2.471242E-7,-3.070613E-6
0.141980,7.443500E-7,-3.415759E-6
0.142600,-1.765598E-6,-2.219648E-6
0.143220,-3.343620E-6,-9.967590E-7
0.143840,-1.229666E-6,-3.180703E-6
0.144460,-5.210450E-7,-3.165826E-6
0.145080,-2.334282E-6,-1.630519E-6
0.145700,-1.628638E-6,-1.118750E-6
0.146320,-1.318988E-6,-3.264014E-6
0.146940,-2.075248E-6,-1.365709E-6
0.147560,-2.688592E-6,-6.278094E-7
0.148180,-2.411694E-6,-1.880453E-6
0.148800,-2.480174E-6,-4.552362E-7
0.149420,-3.757479E-6,-1.270496E-6
0.150040,-2.384897E-6,-1.648372E-6
0.150660,-1.104615E-6,-1.499602E-6
0.151280,-2.066316E-6,-2.826630E-7
0.151900,-1.515497E-6,-1.797142E-6
0.152520,-2.709434E-7,-2.139313E-6
0.153140,5.954800E-8,-3.290792E-6
0.153760,-1.152254E-6,-2.267255E-6
0.154380,-9.140618E-7,-1.898305E-6
0.155000,3.811072E-7,-3.606185E-6
0.155620,2.173502E-7,-4.219117E-6
0.156240,-2.054406E-7,-2.856384E-6
0.156860,1.476790E-6,-4.367887E-6
0.157480,7.890110E-7,-4.338133E-6
0.158100,4.823388E-7,-4.347059E-6
0.158720,-1.679254E-6,-2.523139E-6
0.159340,-3.007174E-7,-3.311620E-6
0.159960,-1.491677E-6,-1.889379E-6
0.160580,-1.429152E-6,-2.430902E-6
0.161200,-1.476790E-6,-2.326763E-6
0.161820,-2.110977E-6,-1.812019E-6
0.162440,-2.051429E-6,-2.835556E-6
0.163060,-2.646909E-6,-1.809043E-6
0.163680,-2.739208E-6,-1.794166E-6
0.164300,-2.703479E-6,-9.818820E-8
0.164920,-3.156044E-6,-2.299984E-6
0.165540,-2.655841E-6,-6.635142E-7
0.166160,-2.018677E-6,-1.886404E-6
0.166780,-2.188389E-6,-1.273471E-6
0.167400,-2.658818E-6,-1.404389E-6
0.168020,-2.736231E-6,-2.787950E-6
0.168640,-1.518474E-6,-1.716806E-6
0.169260,-6.312088E-7,-3.647840E-6
0.169880,-1.578022E-6,-2.231550E-6
0.170500,-8.783330E-7,-2.282132E-6
0.171120,4.049264E-7,-2.966474E-6
0.171740,1.905536E-7,-4.287551E-6
0.172360,5.359320E-8,-2.936720E-6
0.172980,-1.786440E-7,-3.469316E-6
0.173600,7.235082E-7,-4.448223E-6
0.174220,1.036135E-6,-3.383030E-6
0.174840,-1.185005E-6,-2.341640E-6
0.175460,1.000406E-6,-2.832581E-6
0.176080,-5.835704E-7,-2.701663E-6
0.176700,-1.816214E-7,-2.169067E-6
0.177320,1.563135E-6,-5.331917E-6
0.177940,-2.837462E-6,-2.252378E-6
0.178560,-2.215186E-6,-1.701929E-6
0.179180,-1.974016E-6,-1.919133E-6
0.179800,-1.625660E-6,-1.520429E-6
0.180420,-3.557993E-6,-1.187185E-6
0.181040,-2.605225E-6,-2.115509E-6
0.181660,-2.411694E-6,-1.303225E-6
0.182280,-3.337665E-6,-5.891292E-7
0.182900,-2.637976E-6,-1.889379E-6
0.183520,-2.840440E-6,-2.538016E-6
0.184140,-2.992287E-6,-1.707880E-6
0.184760,-2.679660E-7,-3.641890E-6
0.185380,-8.128302E-7,-3.002179E-6
0.186000,-5.954800E-9,-2.758196E-6
0.186620,-7.264856E-7,-1.925084E-6
0.187240,-1.071864E-6,-2.651081E-6
0.187860,-5.627286E-7,-2.540992E-6
0.188480,-6.371636E-7,-3.400882E-6
0.189100,1.185005E-6,-2.895064E-6
0.189720,8.932200E-8,-2.725466E-6
0.190340,1.012316E-7,-3.466341E-6
0.190960,4.168360E-8,-4.290527E-6
0.191580,1.816214E-7,-3.978110E-6
0.192200,1.399378E-7,-3.085490E-6
0.192820,-3.176886E-6,-1.327028E-6
0.193440,-7.026664E-7,-3.403858E-6
0.194060,8.366494E-7,-2.901015E-6
0.194680,-1.488700E-6,-1.669199E-6
0.195300,-2.843417E-6,-1.812019E-6
0.195920,-2.450400E-6,-1.829871E-6
0.196540,-3.084586E-6,-2.029223E-6
0.197160,-2.640954E-6,-1.576962E-6
0.197780,-3.212615E-6,-2.127411E-6
0.198400,-3.697931E-6,-1.184209E-6
0.199020,-2.694547E-6,-8.539398E-7
0.199640,-4.061174E-6,-3.719250E-7
0.200260,-2.015700E-6,-2.305935E-6
0.200880,-2.548654E-6,-1.386536E-6
0.201500,-4.135609E-6,-1.255619E-6
0.202120,-4.153473E-6,-3.868020E-8
0.202740,-1.232644E-6,-2.728442E-6
0.203360,1.548248E-7,-2.416025E-6
0.203980,-1.116525E-6,-3.130121E-6
0.204600,-2.977400E-9,-2.660008E-6
0.205220,3.662202E-7,-3.246161E-6
0.205840,-4.644744E-7,-4.117954E-6
0.206460,1.101638E-7,-4.623772E-6
0.207080,3.156044E-7,-3.954307E-6
0.207700,-4.168360E-8,-4.216142E-6
0.208320,3.751524E-7,-4.585091E-6
0.208940,-3.424010E-7,-3.582382E-6
0.209560,-1.202870E-6,-3.079539E-6
0.210180,-2.700502E-6,-1.999469E-6
0.210800,-1.938287E-6,-2.532065E-6
0.211420,-2.420626E-6,-1.344881E-6
0.212040,-2.236027E-6,-2.895064E-6
0.212660,-1.655434E-6,-1.196111E-6
0.213280,-3.245366E-6,-1.758461E-6
0.213900,-3.784275E-6,-2.386271E-6
0.214520,-2.956558E-6,-1.865576E-6
0.215140,-5.040738E-6,-1.975666E-6
0.215760,-2.527813E-6,-1.776314E-6
0.216380,-3.170931E-6,-1.440094E-6
0.217000,-2.310462E-6,-1.514479E-6
0.217620,-1.762621E-6,-9.461772E-7
0.218240,-4.266614E-6,-7.051698E-7
0.218860,-1.217757E-6,-3.210457E-6
0.219480,3.304914E-7,-4.013815E-6
0.220100,-1.051022E-6,-2.701663E-6
0.220720,-5.478416E-7,-4.067372E-6
0.221340,-7.651918E-7,-2.942671E-6
0.221960,9.706324E-7,-3.094416E-6
0.222580,4.466100E-7,-3.100367E-6
0.223200,4.049264E-7,-4.100101E-6
0.223820,2.441468E-7,-4.701132E-6
0.224440,9.765872E-7,-2.984326E-6
0.225060,-1.607796E-7,-2.523139E-6
0.225680,-6.044122E-7,-3.472292E-6
0.226300,-5.478416E-7,-3.067637E-6
0.226920,-3.281095E-6,-1.493651E-6
0.227540,-3.156044E-6,-1.981616E-6
0.228160,-1.610773E-6,-1.484725E-6
0.228780,-3.355530E-6,-1.523405E-6
0.229400,-1.670321E-6,-1.270496E-6
0.230020,-2.203276E-6,-1.365709E-6
0.230640,-2.492084E-6,-1.588864E-6
0.231260,-3.540129E-6,-1.219914E-6
0.231880,-2.325349E-6,-1.335955E-6
0.232500,-4.582219E-6,-4.730886E-7
0.233120,-3.677089E-6,-1.074119E-6
0.233740,-3.132225E-6,-3.091441E-6
0.234360,-1.488700E-6,-2.582647E-6
0.234980,9.349036E-7,-4.775517E-6
0.235600,-2.084180E-7,-2.796876E-6
0.236220,-2.256869E-6,-2.481484E-6
0.236840,8.634460E-8,-3.368153E-6
0.237460,-4.257682E-7,-1.865576E-6
0.238080,-8.634460E-7,-4.210191E-6
0.238700,-2.858304E-7,-2.496361E-6
0.239320,1.965084E-7,-3.130121E-6
0.239940,6.282314E-7,-3.228309E-6
0.240560,5.299772E-7,-4.129855E-6
0.241180,-2.679660E-7,-2.561819E-6
0.241800,-2.977400E-9,-4.338133E-6
0.242420,-1.363649E-6,-3.040859E-6
0.243040,-9.110844E-7,-3.017056E-6
0.243660,-1.205847E-6,-1.383561E-6
0.244280,-2.959536E-6,-1.362733E-6
0.244900,-9.170392E-7,-2.505287E-6
0.245520,-3.266208E-6,-1.463897E-6
0.246140,-2.944649E-6,-2.642155E-6
0.246760,-2.515903E-6,-1.960789E-6
0.247380,-2.530790E-6,-1.865576E-6
0.248000,-2.512926E-6,-3.046810E-6
0.248620,-1.994858E-6,-1.642421E-6
0.249240,-2.926784E-6,-2.234525E-6
0.249860,-3.435920E-6,-1.091972E-6
0.250480,-2.158615E-6,-1.252643E-6
0.251100,-3.602654E-6,-1.532331E-6
0.251720,-1.679254E-6,-1.755486E-6
0.252340,-1.566112E-6,-2.258329E-6
0.252960,-1.271350E-6,-1.934010E-6
0.253580,-1.697118E-7,-3.945380E-6
0.254200,-2.739208E-7,-2.076829E-6
0.254820,-1.006361E-6,-4.019765E-6
0.255440,-7.741240E-7,-3.540726E-6
0.256060,1.021248E-6,-4.650550E-6
0.256680,6.252540E-8,-3.534775E-6
0.257300,1.649480E-6,-4.683280E-6
0.257920,-1.062932E-6,-4.698157E-6
0.258540,-2.798756E-7,-3.870995E-6
0.259160,-7.800788E-7,-3.466341E-6
0.259780,-1.601841E-6,-3.237235E-6
0.260400,-2.602248E-6,-1.029488E-6
0.261020,-2.286643E-6,-1.157431E-6
0.261640,-1.750711E-6,-1.660273E-6
0.262260,-1.822169E-6,-1.538282E-6
0.262880,-2.501016E-6,-2.475533E-6
0.263500,-3.337665E-6,-1.133627E-6
0.264120,-2.897010E-6,-1.883428E-6
0.264740,-2.792801E-6,-1.347856E-6
0.265360,-2.852349E-6,-3.451464E-7
0.265980,-8.664234E-7,-2.183944E-6
0.266600,-3.569903E-6,-1.210988E-6
0.267220,-2.370010E-6,-1.344881E-6
0.267840,-2.224118E-6,-2.050051E-6
0.268460,-3.498445E-6,-8.777430E-7
0.269080,-2.024632E-6,-1.511503E-6
0.269700,-7.771014E-7,-2.047075E-6
0.270320,-6.073896E-7,-2.912917E-6
0.270940,-6.014348E-7,-2.707614E-6
0.271560,-7.800788E-7,-3.811487E-6
0.272180,1.905536E-7,-3.180703E-6
0.272800,6.639602E-7,-4.341109E-6
0.273420,-5.537964E-7,-3.888848E-6
0.274040,3.334688E-7,-4.486903E-6
0.274660,7.979432E-7,-4.689230E-6
0.275280,-1.399378E-7,-3.719250E-6
0.275900,-1.152254E-6,-1.737634E-6
0.276520,-1.378536E-6,-1.338930E-6
0.277140,2.361078E-6,-5.647309E-6
0.277760,-1.884694E-6,-2.532065E-6
0.278380,-3.025038E-6,-1.460921E-6
0.279000,-1.994858E-6,-2.008395E-6
0.279620,-2.914875E-6,-1.091972E-6
0.280240,-2.938694E-6,-1.312151E-6
0.280860,-2.265801E-6,-1.440094E-6
0.281480,-2.736231E-6,-1.749535E-6
0.282100,-2.152660E-6,-1.431167E-6
0.282720,-2.983355E-6,-1.576962E-6
0.283340,-2.372988E-6,-1.591839E-6
0.283960,-1.959129E-6,-1.758461E-6
0.284580,-2.331304E-6,-2.145263E-6
0.285200,-1.521451E-6,-2.139313E-6
0.285820,-1.688186E-6,-1.145529E-6
0.286440,-6.192992E-7,-3.112268E-6
0.287060,-5.686834E-7,-3.552628E-6
0.287680,-1.071864E-7,-3.882897E-6
0.288300,-3.900394E-7,-3.210457E-6
0.288920,2.768982E-7,-4.885607E-6
0.289540,-3.870620E-7,-2.407099E-6
0.290160,1.452971E-6,-4.391690E-6
0.290780,2.015700E-6,-4.177462E-6
0.291400,5.031806E-7,-3.317571E-6
0.292020,-1.712005E-6,-2.529090E-6
0.292640,-1.214779E-6,-2.207747E-6
0.293260,-6.877794E-7,-3.100367E-6
0.293880,1.149276E-6,-3.793635E-6
0.294500,7.264856E-7,-4.278625E-6
0.295120,-2.646909E-6,-9.848574E-7
0.295740,-1.241576E-6,-2.421976E-6
0.296360,-2.200299E-6,-1.490675E-6
0.296980,-2.876168E-6,-1.517454E-6
0.297600,-3.346598E-6,-2.291058E-6
0.298220,-2.894033E-6,-1.374635E-6
0.298840,-3.489513E-6,7.140960E-8
0.299460,-2.009745E-6,-1.145529E-6
0.300080,-2.771959E-6,-5.206950E-7
0.300700,-2.867236E-6,-1.582913E-6
0.301320,-3.039925E-6,-1.568036E-6
0.301940,-1.003384E-6,-1.942936E-6
0.302560,-3.331711E-6,-2.183944E-6
0.303180,-3.117338E-6,-2.210722E-6
0.303800,-9.051296E-7,-2.981351E-6
0.304420,5.776156E-7,-2.784974E-6
0.305040,2.054406E-7,-3.484193E-6
0.305660,-7.383952E-7,-4.623772E-6
0.306280,4.049264E-7,-3.338399E-6
0.306900,6.580054E-7,-4.168535E-6
0.307520,1.816214E-7,-4.965943E-6
0.308140,-6.222766E-7,-3.362202E-6
0.308760,6.818246E-7,-3.567505E-6
0.309380,-4.168360E-7,-2.270230E-6
0.310000,-2.679660E-8,-3.632963E-6
0.310620,8.426042E-7,-5.049254E-6
0.311240,-3.096496E-6,-1.666224E-6
0.311860,-2.634999E-6,-2.424951E-6
0.312480,-2.173502E-6,-1.091972E-6
0.313100,-2.998242E-6,-1.237766E-6
0.313720,-3.194750E-6,-1.234791E-6
0.314340,-3.397213E-6,-6.724404E-7
0.314960,-2.754095E-6,-1.618618E-6
0.315580,-2.840440E-6,-1.097923E-6
0.316200,-3.507377E-6,-1.041390E-6
0.316820,-2.602248E-6,-1.633495E-6
0.317440,-2.691570E-6,-1.648372E-6
0.318060,-4.195157E-6,-7.111206E-7
0.318680,-4.227908E-6,-1.225865E-6
0.319300,5.299772E-7,-4.079273E-6
0.319920,-1.185005E-6,-2.436853E-6
0.320540,-1.110570E-6,-2.773073E-6
0.321160,-1.298146E-6,-2.017321E-6
0.321780,5.984574E-7,-2.862335E-6
0.322400,7.860336E-7,-3.570480E-6
0.323020,6.520506E-7,-4.620796E-6
0.323640,7.115986E-7,-2.951597E-6
0.324260,-5.299772E-7,-2.924818E-6
0.324880,-8.038980E-8,-3.787684E-6
0.325500,3.275140E-7,-3.466341E-6
0.326120,-9.855194E-7,-3.427661E-6
0.326740,-1.071864E-7,-4.448223E-6
0.327360,-1.756666E-6,-2.219648E-6
0.327980,-8.664234E-7,-2.234525E-6
0.328600,-1.923400E-6,-2.136337E-6
0.329220,-1.869807E-6,-1.871527E-6
0.329840,-3.200705E-6,-1.321078E-6
0.330460,-2.709434E-6,-1.666224E-6
0.331080,-3.718773E-6,-9.729558E-7
0.331700,-3.209637E-6,-1.377610E-6
0.332320,-3.796185E-6,-1.175283E-6
0.332940,-3.144134E-6,-9.997344E-7
0.333560,-2.355123E-6,-2.002444E-6
0.334180,-2.072270E-6,-2.163116E-6
0.334800,-1.545271E-6,-2.050051E-6
0.335420,-2.319395E-6,-1.103873E-6
0.336040,-5.329546E-7,-2.255353E-6
0.336660,-1.488700E-6,-4.433346E-6
0.337280,-1.533361E-6,-2.282132E-6
0.337900,-9.736098E-7,-4.079273E-6
0.338520,-5.418868E-7,-3.781733E-6
0.339140,-6.907568E-7,-3.588332E-6
0.339760,-2.173502E-7,-3.951331E-6
0.340380,-3.543106E-7,-4.364912E-6
0.341000,1.036135E-6,-4.802296E-6
0.341620,8.187850E-7,-4.317305E-6
0.342240,4.644744E-7,-3.594283E-6
0.342860,-1.834078E-6,-3.150949E-6
0.343480,1.042090E-7,-2.969449E-6
0.344100,-1.971039E-6,-2.880187E-6
0.344720,-2.417649E-6,-2.014346E-6
0.345340,-9.497906E-7,-2.954572E-6
0.345960,-2.498039E-6,-1.157431E-6
0.346580,-2.218163E-6,-2.017321E-6
0.347200,-3.930168E-6,-1.312151E-6
0.347820,-2.611180E-6,-1.407364E-6
0.348440,-3.114360E-6,-2.076829E-6
0.349060,-3.912304E-6,-8.152596E-7
0.349680,-3.796185E-6,-1.487700E-6
0.350300,-1.935310E-6,-1.565060E-6
0.350920,-2.072270E-6,-1.817969E-6
0.351540,-8.545138E-7,-3.002179E-6
0.352160,-2.867236E-6,-1.820945E-6
0.352780,-2.188389E-6,-2.793901E-6
0.353400,-1.250508E-7,-3.457415E-6
0.354020,4.257682E-7,-3.716275E-6
0.354640,-5.597512E-7,-3.865045E-6
0.355260,4.585196E-7,-3.469316E-6
0.355880,7.771014E-7,-2.963498E-6
0.356500,2.768982E-7,-3.868020E-6
0.357120,1.217757E-6,-4.668403E-6
0.357740,1.318988E-6,-3.710324E-6
0.358360,-1.324943E-6,-3.130121E-6
0.358980,-3.304914E-7,-3.049785E-6
0.359600,-1.714982E-6,-2.874236E-6
0.360220,8.128302E-7,-3.921577E-6
0.360840,-1.697118E-7,-3.835291E-6
0.361460,-1.479768E-6,-3.127145E-6
0.362080,-2.929762E-6,-1.499602E-6
0.362700,-3.066722E-6,-1.597790E-6
0.363320,-2.584383E-6,-2.475533E-6
0.363940,-3.885507E-6,-8.539398E-7
0.364560,-2.697524E-6,-1.431167E-6
0.365180,-2.837462E-6,-1.684076E-6
0.365800,-3.036948E-6,-1.121726E-6
0.366420,-2.715389E-6,-2.109559E-6
0.367040,-1.482745E-6,-2.299984E-6
0.367660,-5.925026E-7,-4.677329E-6
0.368280,-2.203276E-6,-2.558844E-6
0.368900,-3.992693E-6,-4.463100E-8
0.369520,-1.304101E-6,-2.990277E-6
0.370140,-8.842878E-7,-3.427661E-6
0.370760,-6.669376E-7,-2.642155E-6
0.371380,-3.513332E-7,-3.430636E-6
0.372000,-3.989716E-7,-2.784974E-6
0.372620,1.405333E-6,-3.362202E-6
0.373240,-2.977400E-7,-4.480952E-6
0.373860,-5.061580E-8,-3.894799E-6
0.374480,1.161186E-7,-3.936454E-6
0.375100,-2.768982E-7,-4.001913E-6
0.375720,5.359320E-7,-3.865045E-6
0.376340,-1.280282E-6,-1.820945E-6
0.376960,-1.518474E-7,-3.156899E-6
0.377580,2.679660E-8,-4.007864E-6
0.378200,-1.956152E-6,-2.329738E-6
0.378820,-2.789824E-6,-2.347591E-6
0.379440,-2.849372E-6,-1.246693E-6
0.380060,-2.295575E-6,-1.693003E-6
0.380680,-3.483558E-6,-2.326763E-6
0.381300,-3.188795E-6,-1.716806E-6
0.381920,-3.126270E-6,-1.166357E-6
0.382540,-3.974829E-6,-1.249668E-6
0.383160,-3.084586E-6,-6.099570E-7
0.383780,-3.644338E-6,-1.925084E-6
0.384400,-1.819191E-6,-2.407099E-6
0.385020,-2.917852E-6,-1.130652E-6
0.385640,5.418868E-7,-3.409808E-6
0.386260,3.275140E-7,-4.114978E-6
0.386880,-1.280282E-7,-3.144998E-6
0.387500,-2.977400E-8,-2.460656E-6
0.388120,9.825420E-8,-2.621327E-6
0.388740,8.009206E-7,-4.180437E-6
0.389360,1.548248E-7,-3.314596E-6
0.389980,1.429152E-7,-3.290792E-6
0.390600,1.756666E-6,-4.721960E-6
0.391220,4.019490E-7,-3.743053E-6
0.391840,-5.686834E-7,-3.332448E-6
0.392460,-1.387468E-6,-2.877212E-6
0.393080,-3.840846E-7,-2.323787E-6
0.393700,-1.330898E-6,-2.558844E-6
0.394320,-9.468132E-7,-2.210722E-6
0.394940,-1.369604E-6,-3.023006E-6
0.395560,-1.968061E-6,-2.213698E-6
0.396180,-3.045880E-6,-2.192870E-6
0.396800,-2.063338E-6,-1.975666E-6
0.397420,-2.236027E-6,-2.502311E-6
0.398040,-3.069699E-6,-1.196111E-6
0.398660,-3.680066E-6,-2.410074E-7
0.399280,-3.150089E-6,-1.014611E-6
0.399900,-3.694953E-6,-1.490675E-6
0.400520,-2.861281E-6,-1.508528E-6
0.401140,-2.905942E-6,-1.335955E-6
0.401760,-1.220734E-6,-3.317571E-6
0.402380,-4.156450E-6,-1.029488E-6
0.403000,-1.375559E-6,-3.014080E-6
0.403620,-6.609828E-7,-2.561819E-6
0.404240,-6.103670E-7,-2.758196E-6
0.404860,-1.214779E-6,-3.686521E-6
0.405480,-8.634460E-7,-4.213166E-6
0.406100,3.781298E-7,-3.817438E-6
0.406720,6.431184E-7,-4.233994E-6
0.407340,4.049264E-7,-3.606185E-6
0.407960,4.347004E-7,-4.549387E-6
0.408580,-2.679660E-8,-3.749004E-6
0.409200,-5.359320E-8,-3.424685E-6
0.409820,-1.753689E-6,-2.305935E-6
0.410440,-4.674518E-7,-2.892089E-6
0.411060,-2.611180E-6,-1.219914E-6
0.411680,-3.254298E-6,-1.359758E-6
0.412300,-1.429152E-6,-1.936985E-6
0.412920,-3.057790E-6,-1.017587E-6
0.413540,-2.361078E-6,-1.080070E-6
0.414160,-3.590744E-6,-2.472557E-6
0.414780,-3.039925E-6,-1.695978E-6
0.415400,-1.911491E-6,-1.094947E-6
0.416020,-2.929762E-6,-7.349238E-7
0.416640,-3.861688E-6,-8.628660E-7
0.417260,-2.179457E-6,-1.380586E-6
0.417880,-3.534174E-6,-9.432018E-7
0.418500,-2.995264E-6,-1.809043E-6
0.419120,-3.781298E-7,-2.838532E-6
0.419740,6.550280E-8,-2.832581E-6
0.420360,-6.044122E-7,-2.219648E-6
0.420980,-1.369604E-6,-2.442803E-6
0.421600,-2.798756E-7,-3.320546E-6
0.422220,1.607796E-7,-3.290792E-6
0.422840,-5.746382E-7,-3.591308E-6
0.423460,-1.131412E-7,-4.109027E-6
0.424080,9.081070E-7,-4.971893E-6
0.424700,1.092706E-6,-3.960257E-6
0.425320,-2.352146E-7,-3.972159E-6
0.425940,-1.616728E-6,-2.909941E-6
0.426560,-1.732847E-6,-3.195580E-6
0.427180,-1.012316E-7,-2.880187E-6
0.427800,-2.393830E-6,-1.416290E-6
0.428420,-2.015700E-6,-2.279156E-6
0.429040,-2.140751E-6,-2.154190E-6
0.429660,-2.575451E-6,-1.475798E-6
0.430280,-3.519287E-6,-1.862600E-6
0.430900,-4.239818E-6,-1.576962E-6
0.431520,-1.902559E-6,-1.823920E-6
0.432140,-2.864259E-6,-1.213963E-6
0.432760,-3.013129E-6,-1.413315E-6
0.433380,-2.706457E-6,-1.454971E-6
0.434000,-2.908920E-6,-1.695978E-6
0.434620,-2.432536E-6,-2.621327E-6
0.435240,-1.006361E-6,-2.832581E-6
0.435860,-2.042496E-6,-1.056267E-6
0.436480,-4.198134E-7,-4.454174E-6
0.437100,-7.592370E-7,-3.025982E-6
0.437720,-9.825420E-7,-3.516923E-6
0.438340,-1.875762E-7,-4.138781E-6
0.438960,-2.381920E-7,-2.954572E-6
0.439580,5.657060E-8,-2.722491E-6
0.440200,7.026664E-7,-3.841241E-6
0.440820,1.065909E-6,-3.897774E-6
0.441440,-5.954800E-7,-3.552628E-6
0.442060,-8.217624E-7,-3.037883E-6
0.442680,1.250508E-7,-2.975400E-6
0.443300,-9.259714E-7,-3.966208E-6
0.443920,-1.631615E-6,-2.963498E-6
0.444540,2.084180E-8,-2.963498E-6
0.445160,-2.030587E-6,-2.529090E-7
0.445780,-1.768576E-6,-2.204771E-6
0.446400,-2.402762E-6,-1.216939E-6
0.447020,-2.864259E-6,-6.069816E-7
0.447640,-3.334688E-6,-1.062218E-6
0.448260,-3.028016E-6,-2.109559E-6
0.448880,-3.129247E-6,-1.365709E-6
0.449500,-4.558399E-6,-7.855056E-7
0.450120,-4.847207E-6,-1.133627E-6
0.450740,-2.146705E-6,-2.567770E-6
0.451360,-4.680473E-6,4.135806E-7
0.451980,1.167141E-6,-3.722225E-6
0.452600,-2.888078E-7,-3.287817E-6
0.453220,-1.783463E-6,-2.784974E-6
0.453840,-7.741240E-8,-3.338399E-6
0.454460,-9.438358E-7,-2.948621E-6
0.455080,7.145760E-7,-2.368418E-6
0.455700,3.781298E-7,-3.299719E-6
0.456320,2.649886E-7,-3.680570E-6
0.456940,1.012316E-6,-3.772807E-6
0.457560,9.676550E-7,-3.998938E-6
0.458180,2.381920E-8,-2.389246E-6
0.458800,-1.211802E-6,-3.305669E-6
0.459420,5.984574E-7,-3.326497E-6
0.460040,-2.125864E-6,-1.701929E-6
0.460660,-2.322372E-7,-1.996493E-6
0.461280,-6.877794E-7,-3.011105E-6
0.461900,-2.646909E-6,-2.064928E-6
0.462520,-3.587767E-6,-1.315127E-6
0.463140,-2.983355E-6,-6.129324E-7
0.463760,-3.090541E-6,-8.033580E-7
0.464380,-2.679660E-6,-1.321078E-6
0.465000,-3.721750E-6,-2.588598E-7
0.465620,-2.905942E-6,-1.600765E-6
0.466240,-3.191773E-6,-1.261570E-6
0.466860,-3.251321E-6,-2.204771E-6
0.467480,-3.245366E-6,-9.878328E-7
0.468100,-2.099067E-6,-2.014346E-6
0.468720,6.103670E-7,-2.957548E-6
0.469340,1.062932E-6,-3.984061E-6
0.469960,-9.378810E-7,-4.495829E-6
0.470580,-1.452971E-6,-2.889113E-6
0.471200,-3.215592E-7,-3.582382E-6
0.471820,5.954800E-8,-3.802561E-6
0.472440,7.026664E-7,-3.570480E-6
0.473060,1.220734E-7,-3.496095E-6
0.473680,9.706324E-7,-5.028426E-6
0.474300,-2.888078E-7,-2.740343E-6
0.474920,-4.049264E-7,-3.305669E-6
0.475540,-5.299772E-7,-2.677860E-6
0.476160,-1.557180E-6,-1.764412E-6
0.476780,-2.518880E-6,-2.410074E-6
0.477400,-1.991881E-6,-2.445779E-6
0.478020,-3.001219E-6,-1.820945E-6
0.478640,-2.926784E-6,-1.582913E-6
0.479260,-2.736231E-6,-2.109559E-6
0.479880,-2.617135E-6,-2.493385E-6
0.480500,-2.816620E-6,-2.172042E-7
0.481120,-2.992287E-6,-1.820945E-6
0.481740,-3.650292E-6,-4.760640E-8
0.482360,-3.435920E-6,-8.896446E-7
0.482980,-2.563541E-6,-1.663249E-6
0.483600,-1.893626E-6,-6.516126E-7
0.484220,-2.009745E-6,-1.368684E-6
0.484840,-4.882936E-7,-2.297009E-6
0.485460,-4.415484E-6,-5.236704E-7
0.486080,-2.116931E-6,-2.133362E-6
0.486700,-1.071864E-7,-3.249137E-6
0.487320,-1.098661E-6,-2.398172E-6
0.487940,-4.525648E-7,-3.127145E-6
0.488560,3.870620E-7,-3.454439E-6
0.489180,-6.907568E-7,-3.305669E-6
0.489800,4.674518E-7,-3.876946E-6
0.490420,1.753689E-6,-4.549387E-6
0.491040,-3.275140E-8,-3.891823E-6
0.491660,1.220734E-7,-3.162850E-6
0.492280,-8.634460E-7,-2.898040E-6
0.492900,5.210450E-7,-3.237235E-6
0.493520,-1.467858E-6,-3.079539E-6
0.494140,-2.176479E-6,-1.701929E-6
0.494760,-4.165383E-6,8.628660E-8
0.495380,-1.036135E-6,-1.047341E-6
0.496000,-3.930168E-6,-1.032464E-6
0.496620,-2.932739E-6,-7.170714E-7
0.497240,-3.656247E-6,-1.088996E-6
0.497860,-3.266208E-6,-8.212104E-7
0.498480,-3.453784E-6,-6.397110E-7
0.499100,-5.097309E-6,-4.135806E-7
0.499720,-3.703886E-6,-6.902928E-7
0.500340,-3.808095E-6,-1.368684E-7
0.500960,-3.153067E-6,-7.378992E-7
0.501580,-2.739208E-6,-1.356782E-6
0.502200,-1.339830E-6,-2.642155E-6
0.502820,-1.944242E-6,-2.686786E-6
0.503440,-1.589932E-6,-3.296743E-6
0.504060,2.471242E-7,-3.394931E-6
0.504680,1.190960E-8,-3.734127E-6
0.505300,-9.587228E-7,-3.195580E-6
0.505920,1.021248E-6,-2.793901E-6
0.506540,1.482745E-6,-4.442272E-6
0.507160,1.241576E-6,-4.400617E-6
0.507780,5.954800E-7,-3.609160E-6
0.508400,-4.704292E-7,-1.416290E-6
0.509020,-3.751524E-7,-3.326497E-6
0.509640,-6.728924E-7,-3.632963E-6
0.510260,-1.700095E-6,-1.490675E-6
0.510880,2.322372E-7,-3.805537E-6
0.511500,-7.115986E-7,-3.570480E-6
0.512120,-1.003384E-6,-2.365443E-6
0.512740,-2.378943E-6,-2.201796E-6
0.513360,-2.116931E-6,-3.017056E-6
0.513980,-3.176886E-6,-1.112800E-6
0.514600,-2.768982E-6,-9.193986E-7
0.515220,-4.102857E-6,-6.813666E-7
0.515840,-5.019896E-6,-6.188832E-7
0.516460,-3.718773E-6,-1.565060E-6
0.517080,-3.105428E-6,-2.047075E-6
0.517700,-1.679254E-6,-1.761437E-6
0.518320,-1.637570E-6,-1.850699E-6
0.518940,-2.492084E-6,-1.416290E-6
0.519560,-1.628638E-6,-2.597524E-6
0.520180,-1.548248E-7,-3.585357E-6
0.520800,-5.776156E-7,-2.636204E-6
0.521420,-4.763840E-8,-2.990277E-6
0.522040,-8.426042E-7,-3.513947E-6
0.522660,-1.994858E-7,-3.275915E-6
0.523280,-3.662202E-7,-3.344350E-6
0.523900,1.935310E-6,-4.730886E-6
0.524520,1.607796E-7,-4.055470E-6
0.525140,2.888078E-7,-4.269699E-6
0.525760,-8.604686E-7,-2.609426E-6
0.526380,-1.399378E-6,-3.186653E-6
0.527000,-8.366494E-7,-2.594549E-6
0.527620,-3.105428E-6,-8.509644E-7
0.528240,-2.087157E-6,-1.172308E-6
0.528860,-2.661796E-6,-1.106849E-6
0.529480,-2.649886E-6,-7.051698E-7
0.530100,-2.122886E-6,-1.981616E-6
0.530720,-3.123293E-6,-1.466872E-6
0.531340,-3.337665E-6,-1.740609E-6
0.531960,-3.278117E-6,-1.755486E-7
0.532580,-2.643931E-6,-2.207747E-6
0.533200,-2.789824E-6,-8.301366E-7
0.533820,-2.042496E-6,-2.213698E-6
0.534440,-1.527406E-6,-2.749270E-6
0.535060,-2.289621E-6,-4.225068E-7
0.535680,-4.555422E-6,-1.178258E-6
0.536300,-3.275140E-7,-3.531800E-6
0.536920,-6.550280E-7,-3.826364E-6
0.537540,-1.667344E-7,-2.314861E-6
0.538160,1.280282E-7,-4.040593E-6
0.538780,7.860336E-7,-3.014080E-6
0.539400,3.691976E-7,-4.552362E-6
0.540020,4.793614E-7,-4.019765E-6
0.540640,5.091354E-7,-2.966474E-6
0.541260,6.758698E-7,-2.740343E-6
0.541880,1.697118E-7,-3.371128E-6
0.542500,-1.190960E-7,-2.680835E-6
0.543120,8.277172E-7,-4.436321E-6
0.543740,-2.236027E-6,-1.282397E-6
0.544360,-2.009745E-6,-2.213698E-6
0.544980,-1.780485E-6,-1.350832E-6
0.545600,-2.259847E-6,-1.538282E-6
0.546220,-3.301937E-6,-2.427926E-6
0.546840,-2.980377E-6,-1.181234E-6
0.547460,-3.194750E-6,-1.294299E-6
0.548080,-2.191366E-6,-2.823655E-6
0.548700,-3.620518E-6,-1.071144E-7
0.549320,-3.310869E-6,-7.855056E-7
0.549940,-2.849372E-6,-1.240742E-6
0.550560,-1.441062E-6,-1.660273E-6
0.551180,-2.789824E-6,-2.439828E-6
0.551800,-1.664367E-6,-3.192604E-6
0.552420,-1.786440E-8,-4.543436E-6
0.553040,6.639602E-7,-3.225334E-6
0.553660,-8.158076E-7,-2.413049E-6
0.554280,-5.895252E-7,-2.097657E-6
0.554900,-8.366494E-7,-3.635939E-6
0.555520,-1.429152E-7,-4.829074E-6
0.556140,-3.751524E-7,-3.383030E-6
0.556760,-6.252540E-8,-3.966208E-6
0.557380,1.256463E-6,-3.933479E-6
0.558000,3.959942E-7,-3.984061E-6
0.558620,1.277305E-6,-3.231284E-6
0.559240,2.352146E-7,-3.168801E-6
0.559860,-1.536338E-6,-3.516923E-6
0.560480,-1.521451E-6,-2.362468E-6
0.561100,1.548248E-7,-3.400882E-6
0.561720,-1.875762E-6,-1.675150E-6
0.562340,-1.658412E-6,-1.273471E-6
0.562960,-2.754095E-6,-1.704904E-6
0.563580,-3.298959E-6,-1.791191E-6
0.564200,-3.030993E-6,-7.676532E-7
0.564820,-2.200299E-6,-1.621593E-6
0.565440,-3.855733E-6,-1.032464E-6
0.566060,-3.236434E-6,-1.434143E-6
0.566680,-2.682637E-6,-1.038415E-6
0.567300,-2.006768E-6,-1.981616E-6
0.567920,-3.030993E-6,-1.636470E-6
0.568540,-2.977400E-7,-3.570480E-6
0.569160,-3.662202E-6,-1.395463E-6
0.569780,-5.537964E-7,-3.418735E-6
0.570400,-5.597512E-7,-2.654057E-6
0.571020,-6.252540E-7,-2.758196E-6
0.571640,7.741240E-8,-3.496095E-6
0.572260,-3.721750E-7,-3.513947E-6
0.572880,1.747734E-6,-4.272674E-6
0.573500,8.098528E-7,-3.716275E-6
0.574120,1.098661E-6,-4.635673E-6
0.574740,9.021522E-7,-4.141757E-6
0.575360,-2.441468E-7,-4.323256E-6
0.575980,-6.877794E-7,-4.296478E-6
0.576600,-3.304914E-7,-3.103342E-6
0.577220,-3.870620E-8,-3.564529E-6
0.577840,-1.250508E-6,-2.285107E-6
0.578460,-2.030587E-6,-1.776314E-6
0.579080,-1.968061E-6,-6.278094E-7
0.579700,-1.953174E-6,-1.907231E-6
0.580320,-2.340236E-6,-1.648372E-6
0.580940,-2.706457E-6,-4.790394E-7
0.581560,-2.393830E-6,-6.962436E-7
0.582180,-3.846801E-6,-6.843420E-8
0.582800,-2.846394E-6,-1.722757E-6
0.583420,-3.623496E-6,-1.151480E-6
0.584040,-1.837056E-6,-1.948887E-6
0.584660,-2.512926E-6,-1.892354E-6
0.585280,-3.093519E-6,-1.636470E-7
0.585900,-1.113548E-6,-2.198821E-6
0.586520,-5.269998E-7,-3.150949E-6
0.587140,-3.811072E-7,-2.469582E-6
0.587760,-8.068754E-7,-2.814728E-6
0.588380,3.662202E-7,-3.323522E-6
0.589000,7.771014E-7,-4.579141E-6
0.589620,6.848020E-8,-2.918867E-6
0.590240,6.073896E-7,-4.207216E-6
0.590860,7.354178E-7,-3.781733E-6
0.591480,-7.890110E-7,-2.546942E-6
0.592100,5.448642E-7,-3.329473E-6
0.592720,-4.227908E-7,-3.885872E-6
0.593340,-1.768576E-6,-1.713830E-6
0.593960,1.488700E-8,-3.436587E-6
0.594580,-2.084180E-6,-1.350832E-6
0.595200,-1.908513E-6,-1.758461E-6
0.595820,-2.390852E-6,-1.529356E-6
0.596440,-2.673705E-6,-1.425217E-6
0.597060,-2.426581E-6,-2.035174E-6
0.597680,-2.932739E-6,-1.356782E-6
0.598300,-3.057790E-6,-1.231816E-6
0.598920,-2.637976E-6,-1.219914E-7
0.599540,-3.921236E-6,-6.248340E-7
0.600160,-2.587361E-6,-2.558844E-7
0.600780,-3.153067E-6,-1.142554E-6
0.601400,-2.313440E-6,-1.332979E-6
0.602020,-1.759643E-6,-2.133362E-6
0.602640,-7.443500E-7,-1.826896E-6
0.603260,-7.324404E-7,-2.832581E-6
0.603880,-1.652457E-6,-2.475533E-6
0.604500,1.179050E-6,-4.406567E-6
0.605120,4.882936E-7,-3.811487E-6
0.605740,1.369604E-7,-3.058711E-6
0.606360,-6.431184E-7,-2.523139E-6
0.606980,1.435107E-6,-4.016790E-6
0.607600,4.138586E-7,-1.838797E-6
0.608220,-9.140618E-7,-2.151214E-6
0.608840,-4.882936E-7,-2.787950E-6
0.609460,6.103670E-7,-2.401148E-6
0.610080,-1.039113E-6,-2.701663E-6
0.610700,3.632428E-7,-2.865310E-6
0.611320,4.436326E-7,-3.252112E-6
0.611940,-1.583977E-6,-2.695712E-6
0.612560,-2.736231E-6,-8.450136E-7
0.613180,-2.685615E-6,-1.163381E-6
0.613800,-2.450400E-6,-1.734658E-6
0.614420,-3.665179E-6,-1.675150E-6
0.615040,-2.230073E-6,-1.231816E-6
0.615660,-3.942078E-6,-1.755486E-7
0.616280,-2.810666E-6,-2.023272E-7
0.616900,-1.548248E-6,-2.133362E-6
0.617520,-2.682637E-6,-2.288083E-6
0.618140,3.662202E-7,-4.085224E-6
0.618760,-1.530384E-6,-3.192604E-6
0.619380,-1.006361E-6,-1.693003E-6
0.620000,1.310056E-7,-3.136072E-6
0.620620,-1.703073E-6,-2.668934E-6
0.621240,-3.900394E-7,-2.618352E-6
0.621860,-8.068754E-7,-4.034642E-6
0.622480,5.359320E-8,-3.838266E-6
0.623100,3.572880E-7,-2.975400E-6
0.623720,1.607796E-7,-3.942405E-6
0.624340,2.483152E-6,-5.010574E-6
0.624960,-9.855194E-7,-2.850433E-6
0.625580,7.532822E-7,-2.424951E-6
0.626200,2.292598E-7,-3.240211E-6
0.626820,-4.585196E-7,-2.543967E-6
0.627440,-1.968061E-6,-2.499336E-6
0.628060,-4.433349E-6,-1.749535E-6
0.628680,-1.935310E-6,-1.603741E-6
0.629300,-3.897417E-6,-1.508528E-6
0.629920,-2.521858E-6,-1.154455E-6
0.630540,-3.694953E-6,-9.283248E-7
0.631160,-2.218163E-6,-1.163381E-6
0.631780,-3.811072E-6,-5.355720E-8
0.632400,-3.614564E-6,-8.033580E-7
0.633020,-3.641360E-6,-1.321078E-6
0.633640,-2.340236E-6,-1.210988E-6
0.634260,-1.616728E-6,-2.338664E-6
0.634880,-1.595886E-6,-2.552893E-6
0.635500,-3.304914E-7,-2.665958E-6
0.636120,-1.155231E-6,-3.264014E-6
0.636740,-7.532822E-7,-2.356517E-6
0.637360,6.788472E-7,-2.573721E-6
0.637980,5.091354E-7,-3.040859E-6
0.638600,3.751524E-7,-4.058446E-6
0.639220,5.776156E-7,-4.293502E-6
0.639840,1.277305E-6,-3.963233E-6
0.640460,9.200166E-7,-3.722225E-6
0.641080,8.694008E-7,-4.421444E-6
0.641700,1.518474E-7,-4.085224E-6
0.642320,1.125457E-6,-4.477977E-6
0.642940,5.180676E-7,-3.674619E-6
0.643560,-9.289488E-7,-2.520164E-6
0.644180,-2.066316E-6,-2.058977E-6
0.644800,-2.703479E-6,-1.526380E-6
0.645420,-1.369604E-6,-1.910207E-6
0.646040,-1.539316E-6,-9.372510E-7
0.646660,-2.474219E-6,-9.789066E-7
0.647280,-3.030993E-6,-1.398438E-6
0.647900,-2.122886E-6,-9.878328E-7
0.648520,-2.929762E-6,-1.398438E-6
0.649140,-4.031400E-6,-1.529356E-6
0.649760,-1.929355E-6,-8.688168E-7
0.650380,-2.495061E-6,-1.684076E-6
0.651000,-1.307079E-6,-3.341374E-6
0.651620,-1.848965E-6,-2.076829E-6
0.652240,-1.756666E-6,-1.693003E-6
0.652860,-9.170392E-7,-3.153924E-6
0.653480,-9.378810E-7,-2.811753E-6
0.654100,1.190960E-8,-2.540992E-6
0.654720,-4.674518E-7,-3.391956E-6
0.655340,5.835704E-7,-2.633229E-6
0.655960,2.560564E-7,-3.466341E-6
0.656580,5.686834E-7,-3.662717E-6
0.657200,1.268372E-6,-3.915626E-6
0.657820,7.830562E-7,-3.460390E-6
0.658440,1.030180E-6,-3.463366E-6
0.659060,-1.780485E-6,-1.752511E-6
0.659680,-1.220734E-7,-3.787684E-6
0.660300,-4.317230E-7,-3.177727E-6
0.660920,-1.110570E-6,-2.645131E-6
0.661540,-1.420220E-6,-2.686786E-6
0.662160,-2.331304E-6,-2.549918E-6
0.662780,-2.262824E-6,-2.514213E-6
0.663400,-2.125864E-6,-1.404389E-6
0.664020,-2.920829E-6,-1.624568E-6
0.664640,-3.486535E-6,-1.716806E-6
0.665260,-3.370417E-6,-2.767122E-7
0.665880,-3.656247E-6,-6.962436E-7
0.666500,-2.757072E-6,-1.005685E-6
0.667120,-2.882123E-6,-1.303225E-6
0.667740,-1.307079E-6,-2.981351E-6
0.668360,-2.640954E-6,-1.758461E-6
0.668980,-2.709434E-7,-2.094682E-6
0.669600,6.520506E-7,-3.371128E-6
0.670220,-1.167141E-6,-2.097657E-6
0.670840,1.208824E-6,-3.793635E-6
0.671460,-7.503048E-7,-2.954572E-6
0.672080,-1.845988E-7,-4.299453E-6
0.672700,-6.073896E-7,-3.710324E-6
0.673320,-4.257682E-7,-3.272940E-6
0.673940,8.396268E-7,-2.749270E-6
0.674560,5.121128E-7,-3.305669E-6
0.675180,-5.150902E-7,-3.912651E-6
0.675800,-1.137367E-6,-3.353276E-6
0.676420,-1.607796E-6,-1.160406E-6
0.677040,-1.441062E-6,-1.565060E-6
0.677660,4.466100E-8,-2.903990E-6
0.678280,-3.644338E-6,-8.836938E-7
0.678900,-1.262418E-6,-1.481749E-6
0.679520,-2.905942E-6,-1.487700E-7
0.680140,-3.087564E-6,-8.658414E-7
0.680760,-2.548654E-6,-9.551034E-7
0.681380,-1.473813E-6,-2.124436E-6
0.682000,-3.054812E-6,-1.475798E-6
0.682620,-2.509948E-6,-2.353541E-6
0.683240,-3.656247E-6,-1.026513E-6
0.683860,-1.911491E-6,-2.157165E-6
0.684480,-1.837056E-6,-2.282132E-6
0.685100,-8.694008E-7,-3.008129E-6
0.685720,6.252540E-7,-2.981351E-6
0.686340,-1.447016E-6,-2.041124E-6
0.686960,-7.086212E-7,-3.299719E-6
0.687580,-5.389094E-7,-3.493120E-6
0.688200,6.252540E-8,-3.174752E-6
0.688820,-9.229940E-8,-3.844217E-6
0.689440,-8.664234E-7,-4.870730E-6
0.690060,3.870620E-8,-3.823389E-6
0.690680,1.881717E-6,-2.871261E-6
0.691300,3.126270E-7,-4.183412E-6
0.691920,-8.664234E-7,-3.680570E-6
0.692540,-1.607796E-7,-2.889113E-6
0.693160,-2.048451E-6,-1.222889E-6
0.693780,-2.084180E-6,-1.419266E-6
0.694400,-1.795372E-6,-3.061687E-6
0.695020,-1.125457E-6,-6.694650E-7
0.695640,-2.268779E-6,-2.308910E-6
0.696260,-3.322778E-6,-7.795548E-7
0.696880,-2.724321E-6,-1.127677E-6
0.697500,-3.069699E-6,-1.618618E-6
0.698120,-1.658412E-6,-1.246693E-6
0.698740,-1.923400E-6,-2.674885E-6
0.699360,-5.403981E-6,-1.071144E-7
0.699980,-3.817027E-6,-3.481218E-7
0.700600,-2.239005E-6,-9.551034E-7
0.701220,-2.724321E-6,-1.806068E-6
0.701840,1.661389E-6,-3.918602E-6
0.702460,-6.967116E-7,-3.023006E-6
0.703080,-2.105022E-6,-1.231816E-6
0.703700,1.965084E-7,-2.621327E-6
0.704320,-1.369604E-7,-2.975400E-6
0.704940,2.441468E-7,-3.150949E-6
0.705560,2.084180E-7,-3.573455E-6
0.706180,4.912710E-7,-3.234260E-6
0.706800,8.158076E-7,-4.037618E-6
0.707420,4.882936E-7,-4.028692E-6
0.708040,-3.453784E-7,-3.466341E-6
0.708660,1.798350E-6,-3.433612E-6
0.709280,6.252540E-8,-4.198289E-6
0.709900,8.217624E-7,-4.046544E-6
0.710520,-1.220734E-7,-3.341374E-6
0.711140,-3.325756E-6,-2.014346E-6
0.711760,-2.560564E-6,-1.573987E-6
0.712380,-9.497906E-7,-2.291058E-6
0.713000,-1.482745E-6,-1.074119E-6
0.713620,-1.917446E-6,-7.349238E-7
0.714240,-2.506971E-6,-1.341905E-6
0.714860,-1.878739E-6,-8.450136E-7
0.715480,-2.667750E-6,-1.639445E-6
0.716100,-2.673705E-6,-1.112800E-6
0.716720,-1.354717E-6,-2.511238E-6
0.717340,-2.102044E-6,-2.523139E-6
0.717960,-3.221547E-6,-1.722757E-6
0.718580,-3.200705E-6,-9.223740E-7
0.719200,-4.436326E-7,-3.073588E-6
0.719820,-1.548248E-7,-2.930769E-6
0.720440,8.336720E-8,-2.737368E-6
0.721060,-5.597512E-7,-3.457415E-6
0.721680,-5.389094E-7,-3.002179E-6
0.722300,-2.024632E-7,-4.573190E-6
0.722920,1.048045E-6,-4.106052E-6
0.723540,8.038980E-8,-4.290527E-6
0.724160,8.872652E-7,-4.207216E-6
0.724780,-2.381920E-8,-4.424420E-6
0.725400,-6.103670E-7,-3.677594E-6
0.726020,-4.555422E-7,-3.445513E-6
0.726640,-1.512519E-6,-2.793901E-6
0.727260,9.736098E-7,-4.210191E-6
0.727880,-3.915281E-6,-4.165560E-7
0.728500,-2.033564E-6,-2.597524E-6
0.729120,-2.885101E-6,-1.913182E-6
0.729740,-3.123293E-6,-7.289730E-7
0.730360,-3.045880E-6,3.570480E-8
0.730980,-1.470836E-6,-1.017587E-6
0.731600,-2.581406E-6,-5.772276E-7
0.732220,-2.917852E-6,-1.627544E-6
0.732840,-2.236027E-6,-1.338930E-6
0.733460,-2.995264E-6,-1.306201E-6
0.734080,-3.441874E-6,-3.808512E-7
0.734700,-1.622683E-6,-2.987302E-6
0.735320,-8.426042E-7,-2.844482E-6
0.735940,-1.518474E-7,-2.990277E-6
0.736560,-5.954800E-9,-3.237235E-6
0.737180,-1.494655E-6,-3.252112E-6
0.737800,-7.115986E-7,-3.421710E-6
0.738420,-4.912710E-7,-3.201530E-6
0.739040,-3.691976E-7,-3.216407E-6
0.739660,3.840846E-7,-4.228043E-6
0.740280,-1.003384E-6,-3.091441E-6
0.740900,2.233050E-7,-4.138781E-6
0.741520,9.349036E-7,-4.611870E-6
0.742140,1.048045E-6,-3.475267E-6
0.742760,-5.150902E-7,-3.522874E-6
0.743380,1.199892E-6,-4.475002E-6
0.744000,1.062932E-6,-5.043303E-6
0.744620,-2.087157E-6,-2.511238E-6
0.745240,-1.822169E-6,-2.787950E-6
0.745860,-2.503993E-6,-2.255353E-6
0.746480,-1.539316E-6,-1.005685E-6
0.747100,-2.209231E-6,-3.868020E-7
0.747720,-3.239411E-6,-2.005420E-6
0.748340,-3.156044E-6,-1.041390E-6
0.748960,-2.673705E-6,-1.428192E-6
0.749580,-1.878739E-6,-1.743584E-6
0.750200,-2.501016E-6,-1.264545E-6
0.750820,-1.187983E-6,-1.928059E-6
0.751440,-1.122480E-6,-1.318102E-6
0.752060,-4.198134E-6,-1.047341E-6
0.752680,-2.137773E-6,-1.460921E-6
0.753300,-2.292598E-7,-2.294033E-6
0.753920,-5.984574E-7,-1.928059E-6
0.754540,3.900394E-7,-4.421444E-6
0.755160,6.550280E-7,-3.906700E-6
0.755780,-5.657060E-8,-3.261038E-6
0.756400,4.912710E-7,-3.624037E-6
0.757020,1.768576E-6,-4.195314E-6
0.757640,9.884968E-7,-4.707083E-6
0.758260,1.003384E-6,-3.493120E-6
0.758880,-9.140618E-7,-2.234525E-6
0.759500,-2.364056E-6,-2.469582E-6
0.760120,-1.256463E-6,-2.546942E-6
0.760740,-1.176073E-6,-2.853409E-6
0.761360,-1.295169E-6,-1.740609E-6
0.761980,-1.506564E-6,-1.154455E-6
0.762600,-2.084180E-6,-2.243452E-6
0.763220,-1.557180E-6,-1.160406E-6
0.763840,-3.453784E-6,-9.848574E-7
0.764460,-3.242389E-6,-1.335955E-6
0.765080,-1.917446E-6,-3.079539E-6
0.765700,-4.096902E-6,-1.401413E-6
0.766320,-3.045880E-6,-1.850699E-6
0.766940,-3.438897E-6,-1.687052E-6
0.767560,-2.331304E-6,-2.020297E-6
0.768180,-1.396401E-6,-2.112534E-6
0.768800,-2.241982E-6,-2.410074E-6
0.769420,-1.467858E-6,-1.276447E-6
0.770040,-7.354178E-7,-3.612136E-6
0.770660,-1.545271E-6,-3.136072E-6
0.771280,-1.339830E-7,-3.409808E-6
0.771900,1.012316E-7,-4.486903E-6
0.772520,-3.870620E-7,-4.701132E-6
0.773140,-5.091354E-7,-3.481218E-6
0.773760,8.366494E-7,-4.025716E-6
0.774380,1.622683E-6,-4.314330E-6
0.775000,5.627286E-7,-3.609160E-6
0.775620,-1.557180E-6,-3.906700E-6
0.776240,-1.351740E-6,-1.767388E-6
0.776860,-4.829343E-6,1.190160E-8
0.777480,-2.804711E-6,-1.725732E-6
0.778100,-3.042903E-6,-2.549918E-6
0.778720,-1.700095E-6,-1.550183E-6
0.779340,-2.632022E-6,-1.877477E-6
0.779960,-2.941671E-6,-1.743584E-6
0.780580,-2.268779E-6,-7.081452E-7
0.781200,-2.444445E-6,-1.446044E-6
0.781820,-2.468265E-6,-1.663249E-6
0.782440,-3.111383E-6,-9.164232E-7
0.783060,-3.352552E-6,-2.082780E-7
0.783680,-2.899988E-6,-8.777430E-7
0.784300,-8.336720E-7,-2.392222E-6
0.784920,-2.804711E-6,-2.737368E-6
0.785540,-3.102451E-6,-1.502577E-6
0.786160,1.539316E-6,-3.281866E-6
0.786780,-1.170118E-6,-3.686521E-6
0.787400,2.620112E-7,-3.671644E-6
0.788020,-7.205308E-7,-2.734393E-6
0.788640,7.443500E-8,-3.876946E-6
0.789260,-1.845988E-7,-4.248871E-6
0.789880,4.168360E-7,-3.680570E-6
0.790500,2.200299E-6,-4.504756E-6
0.791120,4.466100E-7,-3.198555E-6
0.791740,1.179050E-6,-4.885607E-6
0.792360,-1.965084E-7,-3.320546E-6
0.792980,-1.512519E-6,-1.892354E-6
0.793600,-2.390852E-6,-1.083046E-6
0.794220,-3.135202E-6,-1.392487E-6
0.794840,-2.864259E-6,-1.327028E-6
0.795460,-2.099067E-6,-2.121460E-6
0.796080,-1.902559E-6,-2.094682E-6
0.796700,-2.289621E-6,-2.823655E-6
0.797320,-2.545677E-6,-1.163381E-6
0.797940,-3.144134E-6,-2.180968E-6
0.798560,-3.802140E-6,-1.208012E-6
0.799180,-4.064151E-6,-7.498008E-7
0.799800,-3.742592E-6,-1.904256E-7
0.800420,-1.947220E-6,-1.785240E-6
0.801040,-2.298553E-6,-1.829871E-6
0.801660,-3.706863E-6,-8.539398E-7
0.802280,-9.646776E-7,-2.648106E-6
0.802900,-7.145760E-7,-2.609426E-6
0.803520,-1.098661E-6,-2.585623E-6
0.804140,-2.233050E-7,-2.323787E-6
0.804760,3.036948E-7,-3.460390E-6
0.805380,5.686834E-7,-3.487169E-6
0.806000,6.848020E-8,-3.656767E-6
0.806620,1.845988E-7,-3.323522E-6
0.807240,1.259440E-6,-4.106052E-6
0.807860,9.617002E-7,-3.790660E-6
0.808480,9.825420E-8,-2.600500E-6
0.809100,5.686834E-7,-2.561819E-6
0.809720,-5.835704E-7,-3.210457E-6
0.810340,7.711466E-7,-4.394666E-6
0.810960,-3.352552E-6,-7.914564E-7
0.811580,-2.941671E-6,-9.432018E-7
0.812200,-2.358101E-6,-2.582647E-6
0.812820,-2.176479E-6,-8.360874E-7
0.813440,-2.560564E-6,-1.865576E-6
0.814060,-3.715795E-6,-1.925084E-6
0.814680,-2.084180E-6,-1.746560E-6
0.815300,-3.948032E-6,6.545880E-7
0.815920,-3.421033E-6,-3.302694E-7
0.816540,-2.739208E-6,-8.509644E-7
0.817160,-1.569090E-6,-1.782265E-6
0.817780,-2.358101E-6,-1.841773E-6
0.818400,-2.325349E-6,-1.922108E-6
0.819020,3.364462E-7,-2.692737E-6
0.819640,-1.941265E-6,-1.922108E-6
0.820260,-8.932200E-7,-2.909941E-6
0.820880,9.825420E-8,-4.079273E-6
0.821500,-6.282314E-7,-3.885872E-6
0.822120,1.845988E-7,-3.085490E-6
0.822740,-8.336720E-7,-3.594283E-6
0.823360,-2.828530E-7,-4.114978E-6
0.823980,2.661796E-6,-5.019500E-6
0.824600,-9.229940E-8,-4.251847E-6
0.825220,-7.235082E-7,-3.058711E-6
0.825840,-4.406552E-7,-3.261038E-6
0.826460,-1.015293E-6,-3.323522E-6
0.827080,7.741240E-8,-2.901015E-6
0.827700,5.954800E-7,-3.463366E-6
0.828320,-1.021248E-6,-1.749535E-6
0.828940,-5.180676E-7,-1.767388E-6
0.829560,-2.340236E-6,-1.886404E-6
0.830180,-3.013129E-6,-1.261570E-6
0.830800,-3.614564E-6,-1.091972E-6
0.831420,-3.153067E-6,-1.142554E-6
0.832040,-4.058196E-6,1.666224E-7
0.832660,-2.655841E-6,-1.478774E-6
0.833280,-2.667750E-6,-1.838797E-6
0.833900,-1.015293E-6,-1.273471E-6
0.834520,-2.200299E-6,-1.460921E-6
0.835140,-2.221140E-6,-1.844748E-6
0.835760,-1.336853E-6,-3.787684E-6
0.836380,-2.343214E-6,-1.922108E-6
0.837000,-4.972258E-7,-3.388981E-6
0.837620,-7.443500E-7,-3.418735E-6
0.838240,6.907568E-7,-3.490144E-6
0.838860,1.313033E-6,-4.644599E-6
0.839480,5.895252E-7,-3.915626E-6
0.840100,9.706324E-7,-4.906435E-6
0.840720,5.954800E-7,-4.073323E-6
0.841340,-1.089728E-6,-4.430371E-6
0.841960,5.984574E-7,-4.207216E-6
0.842580,2.798756E-7,-3.261038E-6
0.843200,-2.828530E-7,-3.255088E-6
0.843820,-5.716608E-7,-3.799586E-6
0.844440,-2.027609E-6,-1.716806E-6
0.845060,-3.492490E-6,-1.576962E-6
0.845680,-2.122886E-6,-7.289730E-7
0.846300,-2.882123E-6,-1.196111E-6
0.846920,-2.983355E-6,-8.182350E-7
0.847540,-3.001219E-6,2.350566E-7
0.848160,-2.816620E-6,-1.636470E-7
0.848780,-3.977806E-6,-1.309176E-7
0.849400,-3.212615E-6,-1.240742E-6
0.850020,-3.066722E-6,-1.184209E-6
0.850640,-2.167547E-6,-2.353541E-6
0.851260,-6.937342E-7,-2.987302E-6
0.851880,-1.965084E-6,-1.907231E-6
0.852500,-2.459332E-6,-1.645396E-6
0.853120,-1.592909E-6,-1.936985E-6
0.853740,3.900394E-7,-5.507465E-6
0.854360,-1.726892E-7,-2.773073E-6
0.854980,1.816214E-7,-3.430636E-6
0.855600,1.071864E-7,-3.278891E-6
0.856220,-6.252540E-8,-4.156634E-6
0.856840,1.313033E-6,-4.367887E-6
0.857460,6.848020E-7,-4.721960E-6
0.858080,1.676276E-6,-4.635673E-6
0.858700,-1.051022E-6,-3.079539E-6
0.859320,9.378810E-7,-4.225068E-6
0.859940,-1.232644E-6,-2.323787E-6
0.860560,5.984574E-7,-5.111737E-6
0.861180,-1.536338E-6,-2.540992E-6
0.861800,-1.685208E-6,-1.303225E-6
0.862420,-1.202870E-6,-8.836938E-7
0.863040,-2.450400E-6,-3.391956E-7
0.863660,-2.614157E-6,-1.800117E-6
0.864280,-3.108406E-6,-1.913182E-6
0.864900,-1.625660E-6,-2.734393E-6
0.865520,-3.662202E-6,-1.056267E-6
0.866140,-4.531603E-6,3.600234E-7
0.866760,-1.914468E-6,-1.758461E-6
0.867380,-1.393423E-6,-1.202062E-6
0.868000,-2.471242E-6,-2.201796E-6
0.868620,-3.263230E-6,-1.080070E-6
0.869240,-1.601841E-6,-2.061952E-6
0.869860,-8.306946E-7,-1.651347E-6
0.870480,-6.877794E-7,-2.558844E-6
0.871100,-1.333875E-6,-2.966474E-6
0.871720,4.763840E-8,-2.344615E-6
0.872340,1.848965E-6,-3.841241E-6
0.872960,4.912710E-7,-3.799586E-6
0.873580,6.401410E-7,-5.352745E-6
0.874200,1.417242E-6,-4.927262E-6
0.874820,7.145760E-8,-3.153924E-6
0.875440,2.977400E-9,-3.421710E-6
0.876060,1.030180E-6,-3.632963E-6
0.876680,-1.637570E-6,-1.934010E-6
0.877300,-1.875762E-7,-3.421710E-6
0.877920,1.905536E-7,-3.210457E-6
0.878540,-1.262418E-6,-2.487434E-6
0.879160,-1.834078E-6,-9.967590E-7
0.879780,-2.185412E-6,-5.058180E-7
0.880400,-2.816620E-6,-1.273471E-6
0.881020,-3.090541E-6,-1.258594E-6
0.881640,-1.688186E-6,-1.285373E-6
0.882260,-3.849778E-6,5.563998E-7
0.882880,-5.716608E-7,-2.734393E-6
0.883500,-2.396807E-6,-2.207747E-6
0.884120,-1.712005E-6,-1.722757E-6
0.884740,-2.542700E-6,-1.330004E-6
0.885360,-4.903778E-6,2.231550E-7
0.885980,-8.932200E-9,-2.728442E-6
0.886600,-6.371636E-7,-2.808778E-6
0.887220,2.441468E-7,-3.073588E-6
0.887840,-1.726892E-7,-3.484193E-6
0.888460,4.763840E-7,-3.159875E-6
0.889080,2.292598E-7,-2.692737E-6
0.889700,1.607796E-7,-4.010839E-6
0.890320,2.545677E-6,-3.451464E-6
0.890940,1.185005E-6,-4.704107E-6
0.891560,8.723782E-7,-4.897508E-6
0.892180,-7.771014E-7,-2.386271E-6
0.892800,-1.485723E-6,-4.114978E-6
0.893420,3.275140E-7,-3.826364E-6
0.894040,-3.036948E-7,-3.490144E-6
0.894660,-1.667344E-6,-2.317837E-6
0.895280,-1.125457E-6,-2.671909E-6
0.895900,-2.429558E-6,-1.856650E-6
0.896520,-2.432536E-6,-9.223740E-7
0.897140,-2.649886E-6,-1.663249E-6
0.897760,-1.947220E-6,-8.598906E-7
0.898380,-2.643931E-6,-3.362202E-7
0.899000,-4.272569E-6,-1.083046E-6
0.899620,-3.793208E-6,-9.074970E-7
0.900240,-2.015700E-6,-1.086021E-6
0.900860,-2.003790E-6,-2.011370E-6
0.901480,-1.878739E-6,-2.032198E-6
0.902100,-2.411694E-6,-2.124436E-6
0.902720,-9.527680E-8,-2.585623E-6
0.903340,-1.342807E-6,-2.609426E-6
0.903960,-9.944516E-7,-3.707348E-6
0.904580,6.848020E-8,-4.058446E-6
0.905200,-2.739208E-7,-3.014080E-6
0.905820,-3.870620E-8,-3.210457E-6
0.906440,5.389094E-7,-3.213432E-6
0.907060,7.949658E-7,-3.969184E-6
0.907680,2.459332E-6,-3.403858E-6
0.908300,9.081070E-7,-3.731152E-6
0.908920,-3.156044E-7,-4.284576E-6
0.909540,6.371636E-7,-3.609160E-6
0.910160,-8.336720E-8,-2.898040E-6
0.910780,-1.399378E-6,-3.213432E-6
0.911400,-1.187983E-6,-2.413049E-6
0.912020,-2.146705E-6,-2.079805E-6
0.912640,-1.985926E-6,-1.330004E-6
0.913260,-1.804304E-6,-1.951862E-6
0.913880,-2.905942E-6,-1.749535E-6
0.914500,-1.834078E-6,-1.663249E-6
0.915120,-3.057790E-6,-1.463897E-6
0.915740,-3.501422E-6,-5.028426E-7
0.916360,-3.039925E-6,-9.521280E-8
0.916980,-4.856139E-6,-1.202062E-6
0.917600,-1.759643E-6,-3.082514E-6
0.918220,-3.114360E-6,-4.254822E-7
0.918840,3.075654E-6,-5.501515E-6
0.919460,-1.241576E-6,-3.359227E-6
0.920080,-9.051296E-7,-2.175017E-6
0.920700,-7.592370E-7,-4.073323E-6
0.921320,-1.280282E-7,-3.136072E-6
0.921940,7.443500E-8,-3.754955E-6
0.922560,3.453784E-7,-3.662717E-6
0.923180,-3.811072E-7,-3.933479E-6
0.923800,9.825420E-8,-4.171511E-6
0.924420,1.214779E-6,-3.870995E-6
0.925040,-3.632428E-7,-2.948621E-6
0.925660,7.741240E-8,-3.198555E-6
0.926280,-5.835704E-7,-2.948621E-6
0.926900,-1.048045E-6,-2.261304E-6
0.927520,-1.259440E-6,-1.972690E-6
0.928140,-1.869807E-6,-2.011370E-6
0.928760,-9.170392E-7,-1.847723E-6
0.929380,-2.006768E-6,-1.999469E-6
0.930000,-3.459739E-6,-7.170714E-7
0.930620,-2.953581E-6,-1.419266E-6
0.931240,-2.783869E-6,-2.207747E-6
0.931860,-2.459332E-6,-1.083046E-6
0.932480,-3.248343E-6,-9.074970E-7
0.933100,-2.113954E-6,-2.737368E-7
0.933720,-2.474219E-6,-1.606716E-7
0.934340,-3.549061E-6,-9.074970E-7
0.934960,-6.133444E-7,-2.918867E-6
0.935580,-2.084180E-8,-3.073588E-6
0.936200,-3.793208E-6,-1.862600E-6
0.936820,8.932200E-8,-3.177727E-6
0.937440,-8.783330E-7,-2.874236E-6
0.938060,1.488700E-7,-3.264014E-6
0.938680,4.198134E-7,-4.189363E-6
0.939300,-1.190960E-7,-2.990277E-6
0.939920,6.014348E-7,-3.585357E-6
0.940540,2.471242E-6,-3.805537E-6
0.941160,-2.322372E-7,-3.624037E-6
0.941780,1.149276E-6,-3.472292E-6
0.942400,6.401410E-7,-3.249137E-6
0.943020,-8.366494E-7,-2.222624E-6
0.943640,-2.271756E-6,-2.383295E-6
0.944260,0.000000,-2.781999E-6
0.944880,-2.432536E-6,-2.999203E-6
0.945500,-1.720937E-6,-2.755220E-6
0.946120,-3.516309E-6,-1.154455E-6
0.946740,-1.509542E-6,-2.133362E-6
0.947360,-2.727298E-6,-7.289730E-7
0.947980,-2.310462E-6,-2.683811E-6
0.948600,-1.717960E-6,-6.337602E-7
0.949220,-3.611586E-6,-1.743584E-6
0.949840,-2.697524E-6,-1.199086E-6
0.950460,-2.140751E-6,-1.023538E-6
0.951080,-2.149683E-6,-1.106849E-6
0.951700,-3.382326E-6,-1.032464E-6
0.952320,-7.890110E-7,-2.740343E-6
0.952940,-2.265801E-6,-1.767388E-6
0.953560,-8.664234E-7,-2.172042E-6
0.954180,-5.865478E-7,-2.427926E-6
0.954800,-1.578022E-7,-2.963498E-6
0.955420,3.930168E-7,-2.814728E-6
0.956040,8.426042E-7,-3.656767E-6
0.956660,1.994858E-7,-4.323256E-6
0.957280,1.199892E-6,-4.082249E-6
0.957900,1.274327E-6,-3.894799E-6
0.958520,6.967116E-7,-3.299719E-6
0.959140,1.310056E-7,-2.689762E-6
0.959760,2.134796E-6,-4.052495E-6
0.960380,-2.024632E-6,-1.672175E-6
0.961000,-1.762621E-6,-2.561819E-6
0.961620,-2.840440E-6,-2.053026E-7
0.962240,-2.250914E-6,-2.978375E-6
0.962860,-2.673705E-6,-2.481484E-6
0.963480,-1.500610E-6,-2.308910E-6
0.964100,-2.411694E-6,-7.884810E-7
0.964720,-2.009745E-6,-2.460656E-6
0.965340,-2.623089E-6,-5.712768E-7
0.965960,-2.524835E-6,-7.319484E-7
0.966580,-2.560564E-6,-5.355720E-7
0.967200,-3.641360E-6,-1.672175E-6
0.967820,-1.444039E-6,-2.183944E-6
0.968440,-3.415078E-6,-9.074970E-7
0.969060,-3.191773E-6,-2.526115E-6
0.969680,-6.937342E-7,-2.865310E-6
0.970300,-2.054406E-7,-3.359227E-6
0.970920,-6.133444E-7,-3.957282E-6
0.971540,1.488700E-7,-3.493120E-6
0.972160,1.107593E-6,-4.537485E-6
0.972780,-8.038980E-8,-2.868286E-6
0.973400,1.092706E-6,-3.463366E-6
0.974020,2.319395E-6,-4.808246E-6
0.974640,1.098661E-6,-4.498805E-6
0.975260,2.590338E-7,-3.356251E-6
0.975880,-3.394236E-7,-3.186653E-6
0.976500,-2.015700E-6,-2.076829E-6
0.977120,-2.617135E-6,-2.493385E-6
0.977740,-2.441468E-7,-4.406567E-6
0.978360,-2.509948E-6,-1.059242E-6
0.978980,-1.828124E-6,-8.866692E-7
0.979600,-2.009745E-6,-2.145263E-6
0.980220,-2.307485E-6,-1.291324E-6
0.980840,-2.855327E-6,-5.385474E-7
0.981460,-2.134796E-6,-1.582913E-6
0.982080,-1.982948E-6,-1.169332E-6
0.982700,-2.402762E-6,-1.288348E-6
0.983320,-2.381920E-6,-2.511238E-6
0.983940,-8.902426E-7,-2.273206E-6
0.984560,-8.396268E-7,-1.936985E-6
0.985180,-1.685208E-6,-2.505287E-6
0.985800,-9.468132E-7,-3.499070E-6
0.986420,-1.158209E-6,-2.612401E-6
0.987040,-4.257682E-7,-3.144998E-6
0.987660,-9.944516E-7,-2.416025E-6
0.988280,-4.495874E-7,-2.478508E-6
0.988900,3.721750E-7,-2.796876E-6
0.989520,1.429152E-7,-3.873971E-6
0.990140,6.937342E-7,-2.484459E-6
0.990760,5.925026E-7,-3.332448E-6
0.991380,-4.704292E-7,-4.507731E-6
0.992000,6.848020E-8,-4.320281E-6
0.992620,-6.550280E-8,-3.484193E-6
0.993240,-1.214779E-6,-2.332714E-6
0.993860,-1.214779E-6,-1.934010E-6
0.994480,-1.190960E-6,-2.648106E-6
0.995100,-2.078225E-6,-1.618618E-6
0.995720,-1.348762E-6,-2.061952E-6
0.996340,-3.105428E-6,-1.916158E-6
0.996960,-1.866830E-6,-1.687052E-6
0.997580,-2.974423E-6,-1.505552E-6
0.998200,-2.459332E-6,-1.573987E-6
0.998820,-4.418462E-6,3.540726E-7
0.999440,-1.622683E-6,-8.688168E-7
1.000060,-1.527406E-6,-1.886404E-6
1.000680,-2.483152E-6,-2.222624E-6
1.001300,-1.884694E-6,-2.648106E-6
1.001920,1.193937E-6,-3.701398E-6
1.002540,-1.152254E-6,-2.413049E-6
1.003160,-1.113548E-6,-3.374104E-6
1.003780,-1.030180E-6,-3.558578E-6
1.004400,-5.418868E-7,-3.790660E-6
1.005020,-5.091354E-7,-2.189894E-6
1.005640,1.441062E-6,-3.674619E-6
1.006260,2.590338E-7,-3.603209E-6
1.006880,-7.294630E-7,-3.266989E-6
1.007500,9.289488E-7,-4.516657E-6
1.008120,-6.848020E-8,-3.266989E-6
1.008740,-1.214779E-6,-3.713299E-6
1.009360,-7.354178E-7,-2.118485E-6
1.009980,-1.557180E-6,-2.555869E-6
1.010600,6.192992E-7,-3.859094E-6
1.011220,-1.152254E-6,-2.939695E-6
1.011840,-2.664773E-6,-1.936985E-6
1.012460,-1.092706E-6,-2.514213E-6
1.013080,-2.578428E-6,-2.969449E-6
1.013700,-3.117338E-6,-1.258594E-6
1.014320,-3.718773E-6,-2.023272E-6
1.014940,-2.763027E-6,-1.169332E-6
1.015560,-3.900394E-6,-6.545880E-7
1.016180,-3.980784E-6,-1.621593E-6
1.016800,-1.655434E-6,-1.127677E-6
1.017420,-2.849372E-6,-1.264545E-6
1.018040,-1.765598E-6,-2.133362E-6
1.018660,-2.655841E-6,-2.701663E-6
1.019280,-1.262418E-6,-3.781733E-6
1.019900,2.917852E-7,-3.246161E-6
1.020520,-8.813104E-7,-3.165826E-6
1.021140,5.865478E-7,-3.591308E-6
1.021760,-1.697118E-7,-3.674619E-6
1.022380,1.059954E-6,-4.445248E-6
1.023000,1.190960E-6,-3.091441E-6
1.023620,4.466100E-8,-4.745763E-6
1.024240,5.954800E-8,-3.519898E-6
1.024860,4.287456E-7,-4.951066E-6
1.025480,3.900394E-7,-3.246161E-6
1.026100,1.006361E-6,-3.147973E-6
1.026720,-2.110977E-6,-2.526115E-6
1.027340,-1.875762E-6,-1.969715E-6
1.027960,-2.209231E-6,-2.064928E-6
1.028580,-8.694008E-7,-2.371394E-6
1.029200,-3.039925E-6,-1.764412E-6
1.029820,-2.557587E-6,-1.187185E-6
1.030440,-3.236434E-6,-1.252643E-6
1.031060,-2.894033E-6,-1.695978E-6
1.031680,-3.662202E-6,-7.408746E-7
1.032300,-3.069699E-6,-7.498008E-7
1.032920,-2.578428E-6,-1.398438E-6
1.033540,-3.185818E-6,-7.230222E-7
1.034160,-1.345785E-6,-1.576962E-6
1.034780,-8.158076E-7,-3.275915E-6
1.035400,-8.366494E-7,-3.963233E-6
1.036020,-2.590338E-7,-3.008129E-6
1.036640,7.443500E-8,-3.627013E-6
1.037260,-4.793614E-7,-3.079539E-6
1.037880,3.304914E-7,-4.195314E-6
1.038500,-2.768982E-7,-1.832846E-6
1.039120,6.192992E-7,-3.171776E-6
1.039740,3.840846E-7,-4.147708E-6
1.040360,3.245366E-7,-5.004623E-6
1.040980,1.420220E-6,-4.918336E-6
1.041600,7.473274E-7,-4.796345E-6
1.042220,1.369604E-7,-3.490144E-6
1.042840,-9.646776E-7,-3.124170E-6
1.043460,-1.789417E-6,-2.404123E-6
1.044080,-1.804304E-6,-2.972425E-6
1.044700,-3.197728E-6,-1.740609E-6
1.045320,-1.643525E-6,-2.416025E-6
1.045940,-2.096090E-6,-4.552362E-7
1.046560,-1.911491E-6,-1.725732E-6
1.047180,-2.197321E-6,-8.747676E-7
1.047800,-2.837462E-6,-1.573987E-6
1.048420,-3.778321E-6,-3.957282E-7
1.049040,-2.030587E-6,-2.088731E-6
1.049660,-2.137773E-6,-1.817969E-6
1.050280,-3.057790E-6,-1.443069E-6
1.050900,-1.578022E-7,-3.266989E-6
1.051520,-1.110570E-6,-2.942671E-6
1.052140,-4.415484E-6,9.580788E-7
1.052760,-4.079038E-6,1.457946E-7
1.053380,-1.015293E-6,-3.377079E-6
1.054000,-1.244553E-6,-1.919133E-6
1.054620,2.977400E-7,-3.948356E-6
1.055240,9.497906E-7,-4.355986E-6
1.055860,1.310056E-6,-4.326232E-6
1.056480,5.746382E-7,-3.466341E-6
1.057100,1.515497E-6,-4.638649E-6
1.057720,8.366494E-7,-3.936454E-6
1.058340,4.734066E-7,-3.394931E-6
1.058960,-3.275140E-8,-2.877212E-6
1.059580,1.021248E-6,-4.144732E-6
1.060200,4.168360E-7,-4.951066E-6
1.060820,-3.275140E-8,-2.877212E-6
1.061440,-4.793614E-7,-2.811753E-6
1.062060,-2.054406E-6,-2.421976E-6
1.062680,-2.492084E-6,-1.954838E-6
1.063300,-3.212615E-6,-2.085755E-6
1.063920,-2.766005E-6,-1.315127E-6
1.064540,-2.986332E-6,-7.170714E-7
1.065160,-2.536745E-6,-1.481749E-6
1.065780,-2.557587E-6,-1.627544E-6
1.066400,-3.897417E-6,-1.865576E-6
1.067020,-4.105835E-6,-5.147442E-7
1.067640,-3.814049E-6,-1.517454E-6
1.068260,-3.456761E-6,-1.684076E-6
1.068880,-2.974423E-6,-1.490675E-6
1.069500,-3.078632E-6,-2.106583E-6
1.070120,-5.180676E-7,-4.213166E-6
1.070740,6.460958E-7,-3.546677E-6
1.071360,-5.478416E-7,-3.418735E-6
1.071980,-8.634460E-8,-3.451464E-6
1.072600,1.125457E-6,-4.998672E-6
1.073220,6.341862E-7,-3.403858E-6
1.073840,1.985926E-6,-4.198289E-6
1.074460,5.954800E-7,-4.650550E-6
1.075080,-9.200166E-7,-3.728176E-6
1.075700,-3.275140E-8,-2.713565E-6
1.076320,-3.840846E-7,-2.466607E-6
1.076940,-5.984574E-7,-2.793901E-6
1.077560,-8.336720E-7,-2.082780E-6
1.078180,-1.750711E-6,-2.466607E-6
1.078800,-2.533767E-6,-2.189894E-6
1.079420,-2.506971E-6,-1.166357E-6
1.080040,-2.468265E-6,-4.165560E-7
1.080660,-2.578428E-6,-1.395463E-6
1.081280,-2.316417E-6,-1.392487E-6
1.081900,-2.495061E-6,-1.359758E-6
1.082520,-3.703886E-6,-1.097923E-6
1.083140,-2.575451E-6,-1.669199E-6
1.083760,-2.411694E-6,-1.931035E-6
1.084380,-2.819598E-6,-1.276447E-6
1.085000,-1.783463E-6,-1.606716E-6
1.085620,-3.590744E-6,-8.926200E-7
1.086240,-1.164163E-6,-2.517188E-6
1.086860,-9.676550E-7,-2.770097E-6
1.087480,0.000000,-3.049785E-6
1.088100,-2.620112E-7,-3.835291E-6
1.088720,1.607796E-7,-3.627013E-6
1.089340,1.259440E-6,-3.534775E-6
1.089960,1.024226E-6,-3.995962E-6
1.090580,-8.038980E-8,-4.876681E-6
1.091200,8.217624E-7,-3.237235E-6
1.091820,-1.786440E-8,-2.915892E-6
1.092440,-3.185818E-7,-3.591308E-6
1.093060,-1.354717E-6,-2.719516E-6
1.093680,1.301124E-6,-3.873971E-6
1.094300,-1.979971E-6,-2.160140E-6
1.094920,-1.604819E-6,-2.377345E-6
1.095540,-1.292192E-6,-2.401148E-6
1.096160,-2.384897E-6,-1.374635E-6
1.096780,-1.539316E-6,-1.246693E-6
1.097400,-3.388281E-6,-1.639445E-6
1.098020,-2.709434E-6,-1.237766E-6
1.098640,-3.614564E-6,-3.868020E-7
1.099260,-3.278117E-6,-1.324053E-6
1.099880,-3.132225E-6,-1.901281E-6
1.100500,-1.107593E-6,-2.609426E-6
1.101120,-1.845988E-6,-2.698688E-6
1.101740,-3.525242E-6,-2.118485E-6
1.102360,-1.747734E-6,-2.154190E-6
1.102980,-5.657060E-8,-3.558578E-6
1.103600,-6.282314E-7,-2.939695E-6
1.104220,5.805930E-7,-2.981351E-6
1.104840,-1.429152E-7,-3.415759E-6
1.105460,5.657060E-8,-3.061687E-6
1.106080,1.143322E-6,-4.091175E-6
1.106700,4.436326E-7,-4.534510E-6
1.107320,3.721750E-7,-5.064131E-6
1.107940,-1.250508E-7,-4.332182E-6
1.108560,-2.381920E-7,-4.296478E-6
1.109180,-8.932200E-8,-4.183412E-6
1.109800,-3.275140E-7,-3.258063E-6
1.110420,-2.518880E-6,-2.109559E-6
1.111040,-2.569496E-6,-1.588864E-6
1.111660,-1.738802E-6,-1.981616E-6
1.112280,-1.744756E-6,-1.779289E-6
1.112900,-2.051429E-6,-1.404389E-6
1.113520,-1.929355E-6,-1.957813E-6
1.114140,-2.861281E-6,-3.778758E-7
1.114760,-2.691570E-6,-1.585888E-6
1.115380,-4.516716E-6,3.094416E-7
1.116000,-3.471648E-6,-9.789066E-7
1.116620,-3.331711E-6,-1.695978E-6
1.117240,-2.265801E-6,-2.002444E-6
1.117860,-1.068887E-6,-2.535041E-6
1.118480,2.024632E-7,-1.809043E-6
1.119100,-3.084586E-6,-2.677860E-7
1.119720,-1.214779E-6,-1.928059E-6
1.120340,-1.518474E-7,-2.612401E-6
1.120960,-2.090135E-6,-3.427661E-6
1.121580,-6.222766E-7,-3.106318E-6
1.122200,6.163218E-7,-3.659742E-6
1.122820,-5.359320E-8,-3.615111E-6
1.123440,2.501016E-7,-4.564264E-6
1.124060,1.193937E-6,-4.852877E-6
1.124680,-1.458926E-7,-4.174486E-6
1.125300,4.972258E-7,-3.990011E-6
1.125920,1.330898E-6,-5.135540E-6
1.126540,4.882936E-7,-3.534775E-6
1.127160,-9.706324E-7,-3.079539E-6
1.127780,-2.075248E-6,-2.430902E-6
1.128400,-2.673705E-6,-2.124436E-6
1.129020,-1.411288E-6,-2.231550E-6
1.129640,-2.128841E-6,-1.243717E-6
1.130260,-2.771959E-6,-1.002710E-6
1.130880,-3.081609E-6,-5.712768E-7
1.131500,-1.432129E-6,-7.140960E-7
1.132120,-3.048858E-6,-1.234791E-6
1.132740,-4.332117E-6,-1.267520E-6
1.133360,-2.623089E-6,-1.151480E-6
1.133980,-2.783869E-6,-1.972690E-6
1.134600,-3.185818E-6,-1.330004E-6
1.135220,-9.795646E-7,-2.338664E-6
1.135840,4.376778E-7,-2.820679E-6
1.136460,3.394236E-7,-3.624037E-6
1.137080,8.068754E-7,-3.487169E-6
1.137700,-1.595886E-6,-3.632963E-6
1.138320,-9.974290E-7,-2.811753E-6
1.138940,3.245366E-7,-4.451198E-6
1.139560,3.215592E-7,-3.933479E-6
1.140180,1.071864E-6,-3.805537E-6
1.140800,5.746382E-7,-4.269699E-6
1.141420,1.220734E-7,-4.418469E-6
1.142040,-7.056438E-7,-3.891823E-6
1.142660,-6.848020E-8,-3.127145E-6
1.143280,-1.840033E-6,-1.978641E-6
1.143900,-1.158209E-6,-3.546677E-6
1.144520,-1.494655E-6,-2.082780E-6
1.145140,-1.872785E-6,-3.210457E-6
1.145760,-2.649886E-6,-1.463897E-6
1.146380,-1.765598E-6,-1.338930E-6
1.147000,-2.649886E-6,-1.481749E-6
1.147620,-2.655841E-6,-1.160406E-6
1.148240,-3.611586E-6,-1.312151E-6
1.148860,-3.337665E-6,-8.420382E-7
1.149480,-1.845988E-6,-2.169067E-6
1.150100,-1.414265E-6,-2.636204E-6
1.150720,-2.730276E-6,-4.582116E-7
1.151340,-2.518880E-6,-7.111206E-7
1.151960,-2.575451E-6,-1.832846E-6
1.152580,-5.061580E-8,-3.383030E-6
1.153200,7.771014E-7,-3.603209E-6
1.153820,-2.501016E-7,-2.945646E-6
1.154440,-4.079038E-7,-4.135806E-6
1.155060,-2.530790E-7,-3.121195E-6
1.155680,3.751524E-7,-4.278625E-6
1.156300,1.179050E-6,-4.010839E-6
1.156920,6.401410E-7,-3.778758E-6
1.157540,1.351740E-6,-4.257797E-6
1.158160,1.372581E-6,-4.082249E-6
1.158780,9.497906E-7,-2.942671E-6
1.159400,1.524429E-6,-3.499070E-6
1.160020,9.081070E-7,-3.014080E-6
1.160640,2.959536E-6,-5.424154E-6
1.161260,-1.953174E-6,-2.326763E-6
1.161880,-1.843011E-6,-1.499602E-6
1.162500,-3.111383E-6,-1.449020E-6
1.163120,-2.837462E-6,-1.931035E-6
1.163740,-2.506971E-6,-1.205037E-6
1.164360,-2.224118E-6,-1.478774E-6
1.164980,-2.563541E-6,-2.133362E-6
1.165600,-2.858304E-6,-1.803092E-6
1.166220,-3.581812E-6,-3.868020E-8
1.166840,-3.736637E-6,-1.047341E-6
1.167460,-1.182028E-6,-2.255353E-6
1.168080,-2.468265E-6,-2.118485E-6
1.168700,-3.513332E-7,-1.945912E-6
1.169320,1.423197E-6,-4.103077E-6
1.169940,-7.949658E-7,-3.445513E-6
1.170560,-8.247398E-7,-3.008129E-6
1.171180,3.811072E-7,-2.410074E-6
1.171800,-4.436326E-7,-3.528824E-6
1.172420,1.122480E-6,-3.409808E-6
1.173040,-6.996890E-7,-3.662717E-6
1.173660,1.941265E-6,-4.909410E-6
1.174280,7.145760E-7,-4.001913E-6
1.174900,7.592370E-7,-4.442272E-6
1.175520,-4.704292E-7,-2.148239E-6
1.176140,2.143728E-7,-3.507997E-6
1.176760,-2.054406E-6,-1.178258E-6
1.177380,9.884968E-7,-3.847192E-6
1.178000,-5.180676E-7,-2.255353E-6
1.178620,-2.206253E-6,-8.688168E-7
1.179240,-1.321966E-6,-1.371659E-6
1.179860,-1.670321E-6,-1.454971E-6
1.180480,-2.239005E-6,-1.853674E-6
1.181100,-3.352552E-6,-1.222889E-6
1.181720,-1.810259E-6,-7.884810E-7
1.182340,-2.262824E-6,-1.618618E-6
1.182960,-2.125864E-6,-1.550183E-6
1.183580,-3.352552E-6,-4.522608E-7
1.184200,-2.218163E-6,-6.307848E-7
1.184820,5.597512E-7,-3.255088E-6
1.185440,-2.489106E-6,-1.547208E-6
1.186060,-2.998242E-6,-3.112268E-6
1.186680,-4.614970E-7,-3.597259E-6
1.187300,-1.533361E-6,-2.648106E-6
1.187920,6.967116E-7,-4.965943E-6
1.188540,-3.334688E-7,-4.588067E-6
1.189160,-8.336720E-8,-3.347325E-6
1.189780,7.324404E-7,-4.242920E-6
1.190400,3.989716E-7,-4.228043E-6
1.191020,7.830562E-7,-3.811487E-6
1.191640,1.327920E-6,-4.067372E-6
1.192260,-1.399378E-7,-3.710324E-6
1.192880,-6.103670E-7,-2.740343E-6
1.193500,-1.259440E-6,-4.522608E-6
1.194120,-1.828124E-6,-2.972425E-6
1.194740,-2.429558E-6,-2.323787E-6
1.195360,-2.274734E-6,-2.252378E-6
1.195980,-2.146705E-6,-1.871527E-6
1.196600,-2.834485E-6,-2.008395E-6
1.197220,-3.307891E-6,-1.187185E-6
1.197840,-2.861281E-6,-1.984592E-6
1.198460,-3.206660E-6,-3.570480E-7
1.199080,-2.828530E-6,-1.511503E-6
1.199700,-2.265801E-6,-1.832846E-6
1.200320,-3.290027E-6,-7.765794E-7
1.200940,-1.988903E-6,-2.445779E-6
1.201560,-1.372581E-6,-1.588864E-6
1.202180,-1.116525E-6,-1.449020E-6
1.202800,-2.545677E-6,-1.449020E-6
1.203420,3.572880E-8,-2.115509E-6
1.204040,-7.949658E-7,-3.903725E-6
1.204660,-1.310056E-6,-3.064662E-6
1.205280,5.418868E-7,-3.258063E-6
1.205900,6.848020E-8,-3.975134E-6
1.206520,3.304914E-7,-4.251847E-6
1.207140,4.585196E-7,-3.266989E-6
1.207760,1.685208E-6,-4.022741E-6
1.208380,1.193937E-6,-2.945646E-6
1.209000,7.115986E-7,-3.043834E-6
1.209620,-4.763840E-8,-3.261038E-6
1.210240,1.330898E-6,-3.695447E-6
1.210860,6.550280E-8,-2.954572E-6
1.211480,-1.375559E-6,-1.669199E-6
1.212100,-2.075248E-6,-3.049785E-6
1.212720,-3.072677E-6,-2.329738E-6
1.213340,-2.295575E-6,-2.419000E-6
1.213960,-2.846394E-6,-8.390628E-7
1.214580,-2.524835E-6,-2.338664E-6
1.215200,-3.578835E-6,-8.063334E-7
1.215820,-2.295575E-6,-1.056267E-6
1.216440,-1.890649E-6,-2.261304E-6
1.217060,-1.488700E-6,-2.094682E-6
1.217680,-1.911491E-6,-1.716806E-6
1.218300,-4.379755E-6,2.856384E-7
1.218920,-1.280282E-6,-2.133362E-6
1.219540,-2.673705E-6,-1.422241E-6
1.220160,-8.336720E-8,-2.927794E-6
1.220780,-6.580054E-7,-3.255088E-6
1.221400,-1.280282E-7,-3.915626E-6
1.222020,1.042090E-7,-3.537751E-6
1.222640,-6.550280E-7,-3.615111E-6
1.223260,9.855194E-7,-4.257797E-6
1.223880,6.639602E-7,-3.380054E-6
1.224500,3.215592E-7,-3.058711E-6
1.225120,3.989716E-7,-2.918867E-6
1.225740,-1.238598E-6,-2.597524E-6
1.226360,-7.413726E-7,-1.704904E-6
1.226980,-1.512519E-6,-2.041124E-6
1.227600,-1.726892E-6,-3.403858E-6
1.228220,-2.310462E-6,-2.115509E-6
1.228840,-1.146299E-6,-2.451730E-6
1.229460,-2.548654E-6,-1.383561E-6
1.230080,-2.474219E-6,-1.160406E-6
1.230700,-3.307891E-6,-9.878328E-7
1.231320,-2.754095E-6,-1.097923E-6
1.231940,-2.995264E-6,-1.425217E-6
1.232560,-2.533767E-6,-8.926200E-8
1.233180,-1.256463E-6,-2.419000E-6
1.233800,-2.381920E-6,-1.690027E-6
1.234420,9.408584E-7,-2.573721E-6
1.235040,-4.882936E-7,-1.722757E-6
1.235660,-5.627286E-6,2.172042E-7
1.236280,-6.103670E-7,-3.582382E-6
1.236900,-5.686834E-7,-2.939695E-6
1.237520,-6.103670E-7,-3.790660E-6
1.238140,-6.312088E-7,-3.769832E-6
1.238760,-1.071864E-7,-4.028692E-6
1.239380,-1.012316E-7,-3.746029E-6
1.240000,9.021522E-7,-4.219117E-6
1.240620,1.536338E-6,-4.489879E-6
1.241240,3.751524E-7,-4.739812E-6
1.241860,3.602654E-7,-3.127145E-6
1.242480,1.339830E-6,-4.730886E-6
1.243100,-3.141157E-6,-1.910207E-6
1.243720,1.575045E-6,-3.668668E-6
1.244340,-2.393830E-6,-6.218586E-7
1.244960,-2.849372E-6,-1.606716E-6
1.245580,-1.381514E-6,-2.529090E-6
1.246200,-2.867236E-6,-6.575634E-7
1.246820,-1.110570E-6,-2.683811E-6
1.247440,-3.170931E-6,-1.743584E-6
1.248060,-2.792801E-6,-1.282397E-6
1.248680,-2.846394E-6,-1.154455E-6
1.249300,-3.108406E-6,-5.683014E-7
1.249920,-3.686021E-6,-2.133362E-6
1.250540,-2.914875E-6,-3.302694E-7
1.251160,-5.002032E-7,-1.928059E-6
1.251780,-2.632022E-6,-2.320812E-7
1.252400,-3.185818E-7,-2.802827E-6
1.253020,-3.572880E-7,-3.124170E-6
1.253640,-8.277172E-7,-3.153924E-6
1.254260,1.330898E-6,-4.156634E-6
1.254880,-1.786440E-8,-2.502311E-6
1.255500,3.989716E-7,-4.091175E-6
1.256120,1.786440E-7,-3.341374E-6
1.256740,1.467858E-6,-3.868020E-6
1.257360,7.026664E-7,-3.870995E-6
1.257980,2.709434E-7,-3.124170E-6
1.258600,8.664234E-7,-3.704373E-6
1.259220,-1.357694E-6,-3.088465E-6
1.259840,-8.485590E-7,-2.115509E-6
1.260460,8.753556E-7,-4.477977E-6
1.261080,-3.173908E-6,-1.880453E-6
1.261700,-1.485723E-6,-2.493385E-6
1.262320,-2.712411E-6,-1.722757E-6
1.262940,-2.218163E-6,-1.261570E-6
1.263560,-2.495061E-6,-1.112800E-6
1.264180,-3.656247E-6,-1.202062E-6
1.264800,-2.804711E-6,-9.670050E-7
1.265420,-2.045474E-6,-1.139578E-6
1.266040,-2.679660E-6,-1.820945E-6
1.266660,-2.908920E-6,-6.367356E-7
1.267280,-2.033564E-6,-1.121726E-6
1.267900,-2.182434E-6,-1.728707E-6
1.268520,-3.474626E-6,-1.080070E-6
1.269140,-1.065909E-6,-3.853143E-6
1.269760,-8.396268E-7,-2.056001E-6
1.270380,-5.835704E-7,-3.115244E-6
1.271000,-2.233050E-7,-3.168801E-6
1.271620,-3.304914E-7,-1.621593E-6
1.272240,5.716608E-7,-4.180437E-6
1.272860,6.669376E-7,-3.323522E-6
1.273480,-5.657060E-8,-3.201530E-6
1.274100,1.697118E-6,-4.436321E-6
1.274720,1.786440E-8,-3.963233E-6
1.275340,-7.741240E-8,-3.549652E-6
1.275960,-1.161186E-6,-2.050051E-6
1.276580,-1.289214E-6,-3.261038E-6
1.277200,-2.542700E-6,-2.088731E-6
1.277820,-5.031806E-7,-1.582913E-6
1.278440,-1.426175E-6,-1.749535E-6
1.279060,-2.322372E-6,-1.368684E-6
1.279680,-3.001219E-6,-2.198821E-6
1.280300,-2.501016E-6,-1.767388E-6
1.280920,-2.387875E-6,-2.103608E-6
1.281540,-2.697524E-6,-9.610542E-7
1.282160,-2.444445E-6,-1.508528E-6
1.282780,-2.411694E-6,-1.969715E-6
1.283400,-2.902965E-6,-4.314330E-7
1.284020,-2.319395E-6,-1.014611E-6
1.284640,-2.846394E-6,-1.469848E-6
1.285260,-9.200166E-7,-3.014080E-6
1.285880,-3.170931E-6,-1.091972E-6
1.286500,3.185818E-7,-2.930769E-6
1.287120,-1.997835E-6,-2.186919E-6
1.287740,-8.634460E-8,-3.347325E-6
1.288360,-1.286237E-6,-3.680570E-6
1.288980,-1.488700E-8,-3.644865E-6
1.289600,-8.723782E-7,-3.695447E-6
1.290220,1.542293E-6,-5.215876E-6
1.290840,8.217624E-7,-4.159609E-6
1.291460,8.932200E-7,-3.879922E-6
1.292080,1.994858E-7,-3.519898E-6
1.292700,-9.081070E-7,-2.285107E-6
1.293320,2.188389E-6,-4.540460E-6
1.293940,2.143728E-6,-4.329207E-6
1.294560,-9.617002E-7,-2.008395E-6
1.295180,-1.694141E-6,-1.657298E-6
1.295800,-1.976994E-6,-2.097657E-6
1.296420,-2.614157E-6,-2.677860E-6
1.297040,-2.498039E-6,-1.020562E-6
1.297660,-1.283259E-6,-2.091706E-6
1.298280,-2.501016E-6,-1.231816E-6
1.298900,-2.786846E-6,-1.133627E-6
1.299520,-3.025038E-6,-1.776314E-6
1.300140,-2.408717E-6,-1.684076E-6
1.300760,-3.236434E-6,-2.508262E-6
1.301380,-2.087157E-6,-1.216939E-6
1.302000,1.688186E-6,-4.180437E-6
1.302620,-1.330898E-6,-7.319484E-7
1.303240,-1.706050E-6,-1.942936E-6
1.303860,-3.513332E-7,-4.073323E-6
1.304480,-3.185818E-7,-3.796610E-6
1.305100,6.818246E-7,-3.817438E-6
1.305720,1.149276E-6,-3.320546E-6
1.306340,1.220734E-7,-2.552893E-6
1.306960,9.974290E-7,-3.981085E-6
1.307580,-2.084180E-8,-3.835291E-6
1.308200,1.012316E-7,-4.079273E-6
1.308820,-1.554203E-6,-3.225334E-6
1.309440,1.068887E-6,-3.769832E-6
1.310060,-1.592909E-6,-1.630519E-6
1.310680,1.441062E-6,-4.504756E-6
1.311300,4.793614E-7,-3.403858E-6
1.311920,-2.021655E-6,-8.836938E-7
1.312540,-1.223711E-6,-2.546942E-6
1.313160,-2.384897E-6,-2.401148E-6
1.313780,-3.474626E-6,-1.318102E-6
1.314400,-3.367439E-6,0.000000
1.315020,-2.274734E-6,-2.160140E-6
1.315640,-3.677089E-6,-1.767388E-6
1.316260,-9.378810E-7,-2.555869E-6
1.316880,-2.590338E-6,-1.826896E-6
1.317500,-2.578428E-6,-1.258594E-6
1.318120,-5.225337E-6,9.699804E-7
1.318740,-1.893626E-6,-1.362733E-6
1.319360,-3.334688E-7,-2.859359E-6
1.319980,-1.080796E-6,-3.350300E-6
1.320600,-2.292598E-7,-2.701663E-6
1.321220,-5.269998E-7,-3.677594E-6
1.321840,4.585196E-7,-3.906700E-6
1.322460,8.366494E-7,-3.850168E-6
1.323080,9.468132E-7,-3.796610E-6
1.323700,1.601841E-6,-4.840976E-6
1.324320,7.890110E-7,-4.721960E-6
1.324940,1.202870E-6,-4.939164E-6
1.325560,2.977400E-7,-4.320281E-6
1.326180,-6.639602E-7,-2.841507E-6
1.326800,1.179050E-6,-3.799586E-6
1.327420,3.900394E-7,-3.805537E-6
1.328040,-1.563135E-6,-1.850699E-6
1.328660,-2.212208E-6,-2.180968E-6
1.329280,-2.742185E-6,-2.436853E-6
1.329900,-1.491677E-6,-1.365709E-6
1.330520,-2.670728E-6,-2.353541E-6
1.331140,-2.920829E-6,-1.889379E-6
1.331760,-1.670321E-6,-2.424951E-6
1.332380,-2.230073E-6,-1.716806E-6
1.333000,-1.917446E-6,-9.134478E-7
1.333620,-2.882123E-6,-9.848574E-7
1.334240,-2.030587E-6,-1.353807E-6
1.334860,-2.399784E-6,-1.573987E-6
1.335480,-1.223711E-6,-2.076829E-6
1.336100,-1.205847E-6,-3.311620E-6
1.336720,-1.027203E-6,-2.276181E-6
1.337340,-4.347004E-7,-2.951597E-6
1.337960,-1.137367E-6,-3.403858E-6
1.338580,-4.853162E-7,-4.680304E-6
1.339200,-4.287456E-7,-4.287551E-6
1.339820,7.205308E-7,-4.888582E-6
1.340440,1.080796E-6,-3.516923E-6
1.341060,1.298146E-6,-3.689496E-6
1.341680,9.914742E-7,-3.507997E-6
1.342300,-7.145760E-8,-2.564795E-6
1.342920,-4.763840E-7,-2.505287E-6
1.343540,-3.010151E-6,-5.891292E-7
1.344160,1.113548E-6,-3.451464E-6
1.344780,-1.137367E-6,-2.770097E-6
1.345400,-1.372581E-6,-1.547208E-6
1.346020,-2.908920E-6,-2.892089E-6
1.346640,-2.944649E-6,-1.663249E-6
1.347260,-2.965490E-6,-8.003826E-7
1.347880,-3.951010E-6,-1.344881E-6
1.348500,-3.617541E-6,-1.077095E-6
1.349120,-3.281095E-6,-6.367356E-7
1.349740,-3.230479E-6,-1.969715E-6
1.350360,-3.748547E-6,-1.154455E-6
1.350980,-3.257276E-6,-1.362733E-6
1.351600,-1.542293E-6,-1.713830E-6
1.352220,-8.366494E-7,-2.410074E-6
1.352840,-8.336720E-7,-3.005154E-6
1.353460,-1.256463E-6,-2.933744E-6
1.354080,-4.198134E-7,-2.668934E-6
1.354700,1.220734E-7,-3.597259E-6
1.355320,-2.739208E-7,-4.091175E-6
1.355940,2.084180E-8,-3.924553E-6
1.356560,5.537964E-7,-3.817438E-6
1.357180,9.646776E-7,-4.662452E-6
1.357800,-1.012316E-7,-2.826630E-6
1.358420,-1.935310E-7,-3.424685E-6
1.359040,-2.947626E-7,-4.278625E-6
1.359660,6.848020E-8,-3.377079E-6
1.360280,1.607796E-7,-3.603209E-6
1.360900,7.145760E-7,-4.248871E-6
1.361520,-1.848965E-6,-2.892089E-6
1.362140,-3.078632E-6,-2.228575E-6
1.362760,-1.703073E-6,-1.496626E-6
1.363380,-2.221140E-6,-1.693003E-6
1.364000,-2.364056E-6,-1.297274E-6
1.364620,-2.090135E-6,-8.182350E-7
1.365240,-2.593315E-6,-6.040062E-7
1.365860,-2.233050E-6,-1.035439E-6
1.366480,-3.754501E-6,-1.202062E-6
1.367100,-1.488700E-6,-1.571011E-6
1.367720,-3.111383E-6,-8.122842E-7
1.368340,-3.161999E-6,-7.081452E-7
1.368960,-6.282314E-7,-3.942405E-6
1.369580,-2.789824E-6,-2.151214E-6
1.370200,-1.372581E-6,-2.383295E-6
1.370820,-5.657060E-7,-3.629988E-6
1.371440,4.674518E-7,-3.737102E-6
1.372060,4.317230E-7,-3.439562E-6
1.372680,5.746382E-7,-3.454439E-6
1.373300,8.098528E-7,-3.454439E-6
1.373920,1.387468E-6,-3.481218E-6
1.374540,3.007174E-7,-2.948621E-6
1.375160,5.954800E-8,-2.567770E-6
1.375780,-1.164163E-6,-3.826364E-6
1.376400,7.145760E-8,-3.076564E-6
1.377020,-2.271756E-6,-2.005420E-6
1.377640,-3.930168E-7,-7.349238E-7
1.378260,-2.265801E-6,2.707614E-7
1.378880,-2.367033E-6,-2.070878E-6
1.379500,-2.813643E-6,-1.951862E-6
1.380120,-2.947626E-6,-4.344084E-7
1.380740,-3.030993E-6,-6.962436E-7
1.381360,-2.271756E-6,-1.999469E-6
1.381980,-2.399784E-6,-1.660273E-6
1.382600,-3.906349E-6,-7.825302E-7
1.383220,-3.400191E-6,-1.133627E-6
1.383840,-2.831507E-6,-1.047341E-6
1.384460,-2.408717E-6,-1.327028E-6
1.385080,1.578022E-7,-3.269965E-6
1.385700,-7.681692E-7,-1.928059E-6
1.386320,-8.604686E-7,-3.820414E-6
1.386940,-1.816214E-7,-2.603475E-6
1.387560,-8.753556E-7,-2.177993E-6
1.388180,-1.369604E-7,-2.969449E-6
1.388800,6.996890E-7,-3.165826E-6
1.389420,9.110844E-7,-3.261038E-6
1.390040,-8.306946E-7,-3.635939E-6
1.390660,4.168360E-8,-3.945380E-6
1.391280,1.786440E-8,-3.823389E-6
1.391900,5.150902E-7,-3.781733E-6
1.392520,-1.310056E-7,-3.332448E-6
1.393140,-1.304101E-6,-3.195580E-6
1.393760,-1.351740E-6,-2.457680E-6
1.394380,-2.107999E-6,-1.327028E-6
1.395000,-2.268779E-6,-1.231816E-6
1.395620,-2.182434E-6,-1.939961E-6
1.396240,-1.509542E-6,-1.737634E-6
1.396860,-1.768576E-6,-2.124436E-6
1.397480,-3.772366E-6,-1.261570E-6
1.398100,-2.414671E-6,-1.353807E-6
1.398720,-4.954394E-6,-7.587270E-7
1.399340,-3.584790E-6,-9.134478E-7
1.399960,-1.890649E-6,-2.109559E-6
1.400580,-2.822575E-6,-2.115509E-6
1.401200,-3.084586E-6,-1.303225E-6
1.401820,-1.182028E-6,-2.401148E-6
1.402440,3.840846E-7,-3.656767E-6
1.403060,-1.256463E-6,-3.618086E-6
1.403680,-1.262418E-6,-3.537751E-6
1.404300,-5.031806E-7,-3.635939E-6
1.404920,-5.657060E-8,-3.174752E-6
1.405540,1.146299E-6,-3.876946E-6
1.406160,1.875762E-7,-2.555869E-6
1.406780,6.758698E-7,-3.308645E-6
1.407400,6.252540E-7,-4.772542E-6
1.408020,1.000406E-6,-4.403592E-6
1.408640,-9.974290E-7,-3.088465E-6
1.409260,9.051296E-7,-4.495829E-6
1.409880,7.592370E-7,-5.120663E-6
1.410500,-2.352146E-7,-3.499070E-6
1.411120,3.572880E-8,-2.826630E-6
1.411740,-1.411288E-6,-2.413049E-6
1.412360,-1.631615E-6,-1.639445E-6
1.412980,-2.072270E-6,-2.148239E-6
1.413600,-2.843417E-6,-1.083046E-6
1.414220,-2.596293E-6,-1.707880E-6
1.414840,-3.224524E-6,-2.886138E-7
1.415460,-4.147518E-6,-3.005154E-7
1.416080,-2.745163E-6,-1.737634E-6
1.416700,-1.810259E-6,-1.514479E-6
1.417320,-2.370010E-6,-1.585888E-6
1.417940,-3.989716E-6,-8.747676E-7
1.418560,-2.768982E-6,3.243186E-7
1.419180,-1.238598E-6,-2.225599E-6
1.419800,5.567738E-7,-4.698157E-6
1.420420,-1.786440E-8,-2.540992E-6
1.421040,-1.444039E-6,-3.650816E-6
1.421660,6.907568E-7,-3.255088E-6
1.422280,1.607796E-7,-3.133096E-6
1.422900,-1.518474E-7,-4.114978E-6
1.423520,1.726892E-7,-4.007864E-6
1.424140,5.627286E-7,-4.248871E-6
1.424760,4.079038E-7,-4.112003E-6
1.425380,3.036948E-7,-3.085490E-6
1.426000,-6.073896E-7,-2.356517E-6
1.426620,9.378810E-7,-3.442538E-6
1.427240,-1.089728E-6,-1.925084E-6
1.427860,-1.875762E-6,-1.386536E-6
1.428480,-2.599270E-6,-1.332979E-6
1.429100,-2.221140E-6,-1.362733E-6
1.429720,-2.789824E-6,-1.094947E-6
1.430340,-2.673705E-6,-1.118750E-6
1.430960,-2.096090E-6,-5.623506E-7
1.431580,-2.670728E-6,-1.035439E-6
1.432200,-3.293004E-6,-1.157431E-6
1.432820,-3.301937E-6,4.760640E-8
1.433440,-1.878739E-6,-1.907231E-6
1.434060,-1.330898E-6,-1.148504E-6
1.434680,-4.769795E-6,-8.509644E-7
1.435300,-2.962513E-6,-1.112800E-6
1.435920,-8.694008E-7,-3.594283E-6
1.436540,-8.277172E-7,-2.329738E-6
1.437160,5.359320E-8,-3.814463E-6
1.437780,-8.366494E-7,-3.665693E-6
1.438400,8.902426E-7,-3.296743E-6
1.439020,1.429152E-7,-3.573455E-6
1.439640,6.818246E-7,-3.775783E-6
1.440260,1.161186E-6,-3.457415E-6
1.440880,8.813104E-7,-4.620796E-6
1.441500,1.637570E-7,-3.201530E-6
1.442120,-1.726892E-7,-4.168535E-6
1.442740,-6.848020E-7,-2.921843E-6
1.443360,3.691976E-7,-2.050051E-6
1.443980,-1.241576E-6,-2.823655E-6
1.444600,-7.622144E-7,-3.713299E-6
1.445220,-4.376778E-7,-3.436587E-6
1.445840,-1.637570E-6,-1.121726E-6
1.446460,-3.036948E-6,-1.118750E-6
1.447080,-2.634999E-6,-2.240476E-6
1.447700,-2.754095E-6,-1.993518E-6
1.448320,-2.751118E-6,-1.669199E-6
1.448940,-3.164976E-6,-4.879656E-7
1.449560,-3.233456E-6,-1.115775E-6
1.450180,-2.730276E-6,-7.944318E-7
1.450800,-2.322372E-6,-1.996493E-6
1.451420,-1.092706E-6,-2.264279E-6
1.452040,-1.613751E-6,-2.249402E-6
1.452660,2.390852E-6,-5.263483E-6
1.453280,-6.133444E-7,-3.073588E-6
1.453900,8.932200E-8,-2.975400E-6
1.454520,8.217624E-7,-3.261038E-6
1.455140,1.935310E-7,-3.835291E-6
1.455760,1.369604E-6,-3.677594E-6
1.456380,1.161186E-6,-3.558578E-6
1.457000,1.217757E-6,-3.558578E-6
1.457620,1.128435E-6,-4.835025E-6
1.458240,-1.786440E-8,-3.835291E-6
1.458860,4.257682E-7,-3.028957E-6
1.459480,-1.652457E-6,-3.153924E-6
1.460100,-3.751524E-7,-2.767122E-6
1.460720,-1.137367E-6,-2.353541E-6
1.461340,-3.173908E-6,-1.919133E-6
1.461960,-2.060361E-6,-2.082780E-6
1.462580,-2.355123E-6,-1.651347E-6
1.463200,-1.613751E-6,-2.472557E-6
1.463820,-3.090541E-6,-3.778758E-7
1.464440,-3.215592E-6,-1.594814E-6
1.465060,-2.536745E-6,-1.454971E-6
1.465680,-2.623089E-6,-1.038415E-6
1.466300,-2.620112E-6,-1.526380E-6
1.466920,-3.620518E-6,-1.788215E-6
1.467540,-1.119502E-6,-9.997344E-7
1.468160,-2.700502E-6,-1.835822E-6
1.468780,-3.549061E-6,-1.264545E-6
1.469400,-3.334688E-6,-1.324053E-6
1.470020,-1.518474E-7,-2.844482E-6
1.470640,-5.865478E-7,-4.040593E-6
1.471260,-1.220734E-7,-3.243186E-6
1.471880,6.252540E-8,-2.889113E-6
1.472500,-1.786440E-8,-3.317571E-6
1.473120,4.317230E-7,-3.400882E-6
1.473740,7.235082E-7,-4.049519E-6
1.474360,1.694141E-6,-4.055470E-6
1.474980,-1.015293E-6,-2.957548E-6
1.475600,3.394236E-7,-3.421710E-6
1.476220,-1.959129E-6,-1.556134E-6
1.476840,-1.429152E-6,-3.091441E-6
1.477460,-5.627286E-7,-2.668934E-6
1.478080,-2.649886E-6,-6.605388E-7
1.478700,-1.670321E-6,-2.540992E-6
1.479320,-1.976994E-6,-1.752511E-6
1.479940,-1.473813E-6,-5.950800E-7
1.480560,-2.804711E-6,-1.386536E-6
1.481180,-2.733253E-6,-9.521280E-8
1.481800,-3.185818E-6,-8.628660E-7
1.482420,-3.468671E-6,-1.416290E-6
1.483040,-1.024226E-6,-1.591839E-6
1.483660,-3.194750E-6,-2.276181E-6
1.484280,-2.629044E-6,-9.223740E-7
1.484900,-4.671541E-6,-5.623506E-7
1.485520,-1.807282E-6,-2.070878E-6
1.486140,1.887672E-6,-4.936189E-6
1.486760,-6.520506E-7,-2.966474E-6
1.487380,3.096496E-7,-4.177462E-6
1.488000,-8.426042E-7,-2.835556E-6
1.488620,8.128302E-7,-2.802827E-6
1.489240,5.925026E-7,-3.826364E-6
1.489860,-2.471242E-7,-3.924553E-6
1.490480,5.448642E-7,-2.909941E-6
1.491100,1.042090E-6,-3.969184E-6
1.491720,3.185818E-7,-4.397641E-6
1.492340,-2.173502E-7,-2.535041E-6
1.492960,3.007174E-7,-2.823655E-6
1.493580,1.187983E-6,-4.891558E-6
1.494200,-3.159021E-6,-8.241858E-7
1.494820,-4.367846E-6,-6.605388E-7
1.495440,-1.196915E-6,-3.653791E-6
1.496060,-3.295982E-6,-1.806068E-6
1.496680,-1.640547E-6,-3.374104E-6
1.497300,-2.533767E-6,-2.035174E-6
1.497920,-2.614157E-6,-2.314861E-6
1.498540,-2.855327E-6,-1.603741E-6
1.499160,-3.456761E-6,-7.944318E-7
1.499780,-3.001219E-6,-2.186919E-6
1.500400,-2.227095E-6,-2.085755E-6
1.501020,-3.647315E-6,-5.087934E-7
1.501640,-1.637570E-7,-2.463631E-6
1.502260,9.438358E-7,-3.728176E-6
1.502880,7.741240E-8,-4.171511E-6
1.503500,7.086212E-7,-2.921843E-6
1.504120,-1.726892E-7,-3.115244E-6
1.504740,-3.304914E-7,-3.308645E-6
1.505360,-7.145760E-8,-3.683545E-6
1.505980,6.460958E-7,-4.701132E-6
1.506600,1.208824E-6,-4.272674E-6
1.507220,1.738802E-6,-3.728176E-6
1.507840,1.628638E-6,-3.198555E-6
1.508460,5.508190E-7,-3.472292E-6
1.509080,-1.786440E-7,-2.496361E-6
1.509700,6.848020E-8,-3.142022E-6
1.510320,-2.584383E-6,-9.699804E-7
1.510940,-2.450400E-6,-1.309176E-6
1.511560,-1.908513E-6,-2.847458E-6
1.512180,-1.262418E-6,-1.826896E-6
1.512800,-1.917446E-6,-1.071144E-6
1.513420,-2.381920E-6,-1.285373E-6
1.514040,-2.831507E-6,-2.079805E-6
1.514660,-2.307485E-6,-1.080070E-6
1.515280,-2.009745E-6,-1.916158E-6
1.515900,-1.828124E-6,-1.210988E-6
1.516520,-3.796185E-6,-1.743584E-6
1.517140,-2.173502E-6,-2.064928E-6
1.517760,-2.774937E-6,-1.966739E-6
1.518380,-2.748140E-6,-1.434143E-6
1.519000,-3.150089E-6,-1.654322E-6
1.519620,-2.209231E-6,-2.963498E-6
1.520240,-2.888078E-7,-2.853409E-6
1.520860,-1.059954E-6,-2.951597E-6
1.521480,2.203276E-7,-3.487169E-6
1.522100,-2.352146E-7,-2.996228E-6
1.522720,9.170392E-7,-4.019765E-6
1.523340,9.736098E-7,-2.743319E-6
1.523960,2.045474E-6,-4.242920E-6
1.524580,-1.905536E-7,-3.332448E-6
1.525200,3.811072E-7,-4.567239E-6
1.525820,-1.003384E-6,-3.400882E-6
1.526440,-1.988903E-6,-2.532065E-6
1.527060,-4.317230E-7,-2.889113E-6
1.527680,-1.339830E-6,-2.755220E-6
1.528300,-2.852349E-6,-2.362468E-6
1.528920,-2.194344E-6,-2.535041E-6
1.529540,-1.372581E-6,-1.475798E-6
1.530160,-2.676683E-6,-1.812019E-6
1.530780,-3.945055E-6,-1.029488E-6
1.531400,-3.132225E-6,-2.567770E-6
1.532020,-3.087564E-6,5.474736E-7
1.532640,-2.932739E-6,-9.729558E-7
1.533260,-1.485723E-6,-2.755220E-6
1.533880,-2.575451E-6,-1.213963E-6
1.534500,-2.977400E-8,-3.249137E-6
1.535120,-2.358101E-6,-1.978641E-6
1.535740,-3.543106E-7,-3.225334E-6
1.536360,2.161592E-6,-4.388715E-6
1.536980,-9.408584E-7,-2.895064E-6
1.537600,-1.369604E-6,-3.629988E-6
1.538220,6.460958E-7,-2.639180E-6
1.538840,2.768982E-7,-4.716009E-6
1.539460,-5.418868E-7,-3.344350E-6
1.540080,4.614970E-7,-3.615111E-6
1.540700,1.125457E-6,-3.240211E-6
1.541320,1.018271E-6,-3.264014E-6
1.541940,-5.210450E-7,-3.142022E-6
1.542560,6.609828E-7,-3.719250E-6
1.543180,-2.495061E-6,-6.188832E-7
1.543800,-2.057383E-6,-9.432018E-7
1.544420,-3.700908E-6,-8.033580E-7
1.545040,-3.498445E-6,-1.213963E-6
1.545660,-1.965084E-6,-1.832846E-6
1.546280,-3.828936E-6,-1.014611E-6
1.546900,-2.629044E-6,-2.088731E-6
1.547520,-2.715389E-6,-1.094947E-6
1.548140,-2.277711E-6,-1.029488E-6
1.548760,-2.161592E-6,-2.811753E-6
1.549380,-1.714982E-6,-2.073854E-6
1.550000,-2.882123E-6,-1.243717E-6
1.550620,-2.212208E-6,-1.770363E-6
1.551240,-1.244553E-6,-1.422241E-6
1.551860,-9.408584E-7,-3.519898E-6
1.552480,-8.336720E-7,-3.537751E-6
1.553100,-4.406552E-7,-2.796876E-6
1.553720,-9.021522E-7,-2.288083E-6
1.554340,-1.786440E-8,-2.216673E-6
1.554960,-4.466100E-7,-3.240211E-6
1.555580,4.466100E-7,-2.784974E-6
1.556200,4.227908E-7,-3.772807E-6
1.556820,1.152254E-6,-3.978110E-6
1.557440,6.192992E-7,-4.281601E-6
1.558060,1.056977E-6,-4.138781E-6
1.558680,-3.662202E-7,-3.674619E-6
1.559300,-6.163218E-7,-2.582647E-6
1.559920,-1.083774E-6,-2.442803E-6
1.560540,-2.569496E-6,-1.508528E-6
1.561160,-2.941671E-6,-1.270496E-6
1.561780,-2.340236E-6,-1.338930E-6
1.562400,-1.744756E-6,-1.934010E-6
1.563020,-3.310869E-6,-1.193135E-6
1.563640,-2.370010E-6,-1.922108E-6
1.564260,-2.920829E-6,-4.849902E-7
1.564880,-2.920829E-6,-1.035439E-6
1.565500,-4.463123E-6,-1.645396E-6
1.566120,-2.372988E-6,-1.981616E-6
1.566740,-4.153473E-6,-1.871527E-6
1.567360,-2.218163E-6,-1.407364E-6
1.567980,-3.233456E-6,-1.925084E-6
1.568600,-1.664367E-6,-2.535041E-6
1.569220,-5.686834E-7,-3.430636E-6
1.569840,-7.979432E-7,-2.624303E-6
1.570460,-8.723782E-7,-2.862335E-6
1.571080,-5.359320E-8,-3.159875E-6
1.571700,5.895252E-7,-4.326232E-6
1.572320,6.848020E-7,-4.290527E-6
1.572940,-1.131412E-7,-3.972159E-6
1.573560,1.726892E-6,-5.370597E-6
1.574180,1.042090E-6,-4.266724E-6
1.574800,4.674518E-7,-3.933479E-6
1.575420,-8.694008E-7,-2.451730E-6
1.576040,-1.003384E-6,-3.201530E-6
1.576660,8.932200E-7,-4.070347E-6
1.577280,-2.447423E-6,-1.725732E-6
1.577900,-2.328327E-6,-5.563998E-7
1.578520,-2.033564E-6,-9.372510E-7
1.579140,-2.372988E-6,-2.291058E-6
1.579760,-1.997835E-6,-6.873174E-7
1.580380,-2.626067E-6,-9.491526E-7
1.581000,-3.426987E-6,-1.484725E-6
1.581620,-2.435513E-6,-1.832846E-6
1.582240,-4.084993E-6,-7.140960E-7
1.582860,-2.959536E-6,-1.160406E-6
1.583480,-2.167547E-6,-1.187185E-6
1.584100,-7.443500E-8,-3.219383E-6
1.584720,6.728924E-7,-3.308645E-6
1.585340,-1.143322E-6,-2.273206E-6
1.585960,-1.595886E-6,-2.529090E-6
1.586580,-5.269998E-7,-3.796610E-6
1.587200,-5.508190E-7,-2.761171E-6
1.587820,3.364462E-7,-2.716540E-6
1.588440,-1.161186E-7,-3.549652E-6
1.589060,1.438084E-6,-4.233994E-6
1.589680,-3.840846E-7,-2.564795E-6
1.590300,-2.888078E-7,-3.716275E-6
1.590920,1.578022E-7,-3.424685E-6
1.591540,5.686834E-7,-2.701663E-6
1.592160,-1.313033E-6,-3.433612E-6
1.592780,-2.813643E-6,-2.499336E-6
1.593400,-1.762621E-6,-2.041124E-6
1.594020,-2.426581E-6,-2.305935E-6
1.594640,-3.945055E-6,-1.785240E-7
1.595260,-2.349169E-6,-1.892354E-6
1.595880,-1.697118E-6,-1.428192E-6
1.596500,-1.423197E-6,-1.675150E-6
1.597120,-1.899581E-6,-1.627544E-6
1.597740,-1.997835E-6,-1.330004E-6
1.598360,-3.575857E-6,-1.886404E-6
1.598980,-1.741779E-6,-1.404389E-6
1.599600,-3.129247E-6,-1.493651E-6
1.600220,-2.241982E-6,-1.163381E-6
1.600840,-3.248343E-6,-1.609691E-6
1.601460,-3.120315E-6,-1.362733E-6
1.602080,-1.524429E-6,-2.204771E-6
1.602700,-1.122480E-6,-1.907231E-6
1.603320,-2.024632E-7,-3.409808E-6
1.603940,-1.164163E-6,-2.951597E-6
1.604560,-6.520506E-7,-4.159609E-6
1.605180,3.126270E-7,-2.546942E-6
1.605800,1.676276E-6,-4.135806E-6
1.606420,1.086751E-6,-3.043834E-6
1.607040,2.197321E-6,-5.305138E-6
1.607660,1.164163E-6,-4.805271E-6
1.608280,7.324404E-7,-3.171776E-6
1.608900,-1.479768E-6,-2.246427E-6
1.609520,-7.294630E-7,-2.511238E-6
1.610140,-1.738802E-6,-2.692737E-6
1.610760,-2.518880E-6,-1.047341E-6
1.611380,-1.586954E-6,-2.368418E-6
1.612000,-2.983355E-6,-6.635142E-7
1.612620,-2.143728E-6,-2.106583E-6
1.613240,-3.048858E-6,-8.152596E-7
1.613860,-2.730276E-6,-1.636470E-6
1.614480,-2.408717E-6,-1.398438E-6
1.615100,-3.781298E-6,-7.617024E-7
1.615720,-2.233050E-6,1.130652E-7
1.616340,-3.367439E-6,-4.016790E-7
1.616960,-2.158615E-6,-1.856650E-6
1.617580,-3.129247E-6,-1.660273E-6
1.618200,-2.709434E-6,-1.684076E-6
1.618820,-7.681692E-7,-2.651081E-6
1.619440,7.592370E-7,-3.448489E-6
1.620060,4.287456E-7,-2.776048E-6
1.620680,-2.292598E-7,-2.505287E-6
1.621300,1.369604E-7,-3.510972E-6
1.621920,-1.015293E-6,-3.281866E-6
1.622540,-6.401410E-7,-4.055470E-6
1.623160,6.282314E-7,-3.909676E-6
1.623780,1.384491E-6,-4.448223E-6
1.624400,-1.161186E-7,-3.951331E-6
1.625020,-4.555422E-7,-2.808778E-6
1.625640,-6.312088E-7,-3.775783E-6
1.626260,-3.691976E-7,-2.302960E-6
1.626880,1.438084E-6,-3.109293E-6
1.627500,-2.292598E-7,-2.252378E-6
1.628120,-2.027609E-6,-2.109559E-6
1.628740,-1.512519E-6,-1.817969E-6
1.629360,-1.447016E-6,-7.795548E-7
1.629980,-1.890649E-6,-1.184209E-6
1.630600,-2.420626E-6,-1.083046E-6
1.631220,-2.879146E-6,-1.205037E-6
1.631840,-2.757072E-6,-1.657298E-6
1.632460,-3.703886E-6,-1.225865E-6
1.633080,-2.792801E-6,-1.359758E-6
1.633700,-2.786846E-6,-1.585888E-6
1.634320,-4.480987E-6,-5.683014E-7
1.634940,-1.432129E-6,-2.868286E-6
1.635560,-2.271756E-6,-1.338930E-6
1.636180,-1.348762E-6,-2.734393E-6
1.636800,-6.460958E-7,-3.371128E-6
1.637420,-8.813104E-7,-3.945380E-6
1.638040,8.932200E-8,-3.698422E-6
1.638660,6.073896E-7,-3.698422E-6
1.639280,-5.954800E-8,-3.124170E-6
1.639900,5.478416E-7,-3.591308E-6
1.640520,1.402355E-6,-4.088200E-6
1.641140,6.609828E-7,-2.957548E-6
1.641760,-8.545138E-7,-3.353276E-6
1.642380,9.170392E-7,-3.377079E-6
1.643000,2.143728E-7,-3.650816E-6
1.643620,-2.423604E-6,-2.457680E-6
1.644240,-1.310056E-7,-3.091441E-6
1.644860,-7.681692E-7,-1.767388E-6
1.645480,-1.068887E-6,-2.886138E-6
1.646100,-1.146299E-6,-9.997344E-7
1.646720,-1.851943E-6,-1.942936E-6
1.647340,-2.908920E-6,-1.701929E-6
1.647960,-2.480174E-6,-2.192870E-6
1.648580,-3.891462E-6,-8.569152E-7
1.649200,-3.712818E-6,-4.701132E-7
1.649820,-2.378943E-6,-1.297274E-6
1.650440,-2.560564E-6,-1.523405E-6
1.651060,-3.096496E-6,-6.902928E-7
1.651680,-9.646776E-7,-2.719516E-6
1.652300,-4.084993E-6,4.879656E-7
1.652920,-1.801327E-6,-1.779289E-6
1.653540,4.853162E-7,-3.299719E-6
1.654160,-1.009339E-6,-2.308910E-6
1.654780,-1.548248E-7,-2.981351E-6
1.655400,-2.947626E-7,-3.091441E-6
1.656020,8.932200E-8,-3.252112E-6
1.656640,1.217757E-6,-3.204506E-6
1.657260,4.168360E-8,-3.281866E-6
1.657880,1.101638E-7,-4.266724E-6
1.658500,2.709434E-7,-2.808778E-6
1.659120,8.574912E-7,-2.993252E-6
1.659740,-1.271350E-6,-2.139313E-6
1.660360,-1.747734E-6,-2.216673E-6
1.660980,-6.669376E-7,-2.288083E-6
1.661600,-1.828124E-6,-1.169332E-6
1.662220,-2.643931E-6,-9.521280E-7
1.662840,-2.134796E-6,-2.201796E-6
1.663460,-3.278117E-6,-1.368684E-6
1.664080,-3.936123E-6,-9.253494E-7
1.664700,-2.453378E-6,-1.591839E-6
1.665320,-3.278117E-6,-1.716806E-6
1.665940,-3.033971E-6,-9.640296E-7
1.666560,-2.629044E-6,-8.747676E-7
1.667180,-1.798350E-6,-7.319484E-7
1.667800,-3.632428E-7,-3.210457E-6
1.668420,-1.506564E-6,-1.910207E-6
1.669040,-4.424416E-6,-5.355720E-8
1.669660,-1.676276E-6,-3.264014E-6
1.670280,-5.627286E-7,-3.740078E-6
1.670900,6.341862E-7,-2.918867E-6
1.671520,-3.751524E-7,-2.820679E-6
1.672140,2.024632E-7,-3.332448E-6
1.672760,6.669376E-7,-3.951331E-6
1.673380,-2.203276E-7,-2.725466E-6
1.674000,5.389094E-7,-3.710324E-6
1.674620,8.306946E-7,-2.963498E-6
1.675240,-9.825420E-8,-3.329473E-6
1.675860,-1.709028E-6,-2.662983E-6
1.676480,1.658412E-6,-4.406567E-6
1.677100,-3.989716E-7,-3.162850E-6
1.677720,-5.639196E-6,3.272940E-8
1.678340,-1.914468E-6,-2.070878E-6
1.678960,-2.849372E-6,-2.496361E-6
1.679580,-1.881717E-6,-1.562085E-6
1.680200,-3.117338E-6,-9.967590E-7
1.680820,-2.712411E-6,-2.210722E-6
1.681440,-2.670728E-6,-1.199086E-6
1.682060,-3.581812E-6,-1.434143E-6
1.682680,-3.185818E-6,-9.402264E-7
1.683300,-2.891055E-6,-2.496361E-6
1.683920,-2.697524E-6,-1.094947E-6
1.684540,-9.140618E-7,-3.621062E-6
1.685160,-1.101638E-6,-3.133096E-6
1.685780,-6.222766E-7,-2.930769E-6
1.686400,-4.823388E-7,-2.892089E-6
1.687020,-7.860336E-7,-3.094416E-6
1.687640,1.607796E-7,-3.234260E-6
1.688260,9.825420E-7,-3.740078E-6
1.688880,1.786440E-8,-4.177462E-6
1.689500,-2.679660E-8,-3.040859E-6
1.690120,3.572880E-7,-5.504490E-6
1.690740,1.509542E-6,-4.656501E-6
1.691360,6.252540E-7,-3.787684E-6
1.691980,4.674518E-7,-3.978110E-6
1.692600,5.716608E-7,-3.862069E-6
1.693220,4.882936E-7,-4.311355E-6
1.693840,9.527680E-8,-3.936454E-6
1.694460,-2.069293E-6,-3.014080E-6
1.695080,-2.521858E-6,-2.793901E-6
1.695700,-1.896604E-6,-1.969715E-6
1.696320,-2.432536E-6,-2.228575E-6
1.696940,-3.754501E-6,-3.180703E-6
1.697560,-2.099067E-6,-1.011636E-6
1.698180,-1.851943E-6,-1.484725E-6
1.698800,-3.150089E-6,-8.896446E-7
1.699420,-3.495468E-6,-1.350832E-6
1.700040,-2.724321E-6,-1.606716E-6
1.700660,-1.926378E-6,-1.844748E-6
1.701280,-2.697524E-6,-2.475533E-6
1.701900,-7.711466E-7,-2.472557E-6
1.702520,-2.161592E-6,-1.547208E-6
1.703140,5.031806E-7,-3.805537E-6
1.703760,-5.180676E-7,-2.502311E-6
1.704380,5.418868E-7,-2.665958E-6
1.705000,-5.002032E-7,-2.909941E-6
1.705620,2.560564E-7,-3.463366E-6
1.706240,3.096496E-7,-4.528559E-6
1.706860,3.870620E-8,-3.641890E-6
1.707480,5.002032E-7,-3.629988E-6
1.708100,5.895252E-7,-3.210457E-6
1.708720,-5.776156E-7,-3.487169E-6
1.709340,-5.329546E-7,-2.871261E-6
1.709960,8.991748E-7,-3.582382E-6
1.710580,-3.870620E-7,-2.683811E-6
1.711200,-3.572880E-7,-2.906966E-6
1.711820,-2.783869E-6,-1.446044E-6
1.712440,-2.998242E-6,-6.278094E-7
1.713060,-1.551225E-6,-1.234791E-6
1.713680,-3.042903E-6,-1.505552E-6
1.714300,-2.557587E-6,-1.431167E-6
1.714920,-1.979971E-6,-1.710855E-6
1.715540,-2.474219E-6,-6.248340E-8
1.716160,-4.183247E-6,1.487700E-8
1.716780,-1.854920E-6,-2.588598E-6
1.717400,-4.933552E-6,-3.957282E-7
1.718020,-7.324404E-7,-3.356251E-6
1.718640,-9.349036E-7,-2.981351E-6
1.719260,-3.278117E-6,-2.380320E-6
1.719880,8.932200E-8,-3.436587E-6
1.720500,-1.792395E-6,-2.677860E-6
1.721120,7.175534E-7,-3.618086E-6
1.721740,2.233050E-7,-2.591573E-6
1.722360,2.709434E-7,-3.766856E-6
1.722980,1.256463E-6,-4.067372E-6
1.723600,2.501016E-7,-3.775783E-6
1.724220,-1.816214E-7,-3.805537E-6
1.724840,4.942484E-7,-3.912651E-6
1.725460,-1.786440E-8,-3.838266E-6
1.726080,-1.738802E-6,-1.645396E-6
1.726700,3.870620E-8,-2.463631E-6
1.727320,-8.932200E-7,-1.874502E-6
1.727940,-3.245366E-6,-3.689496E-7
1.728560,-1.247531E-6,-3.002179E-6
1.729180,-2.795779E-6,-1.809043E-6
1.729800,-1.429152E-6,-1.416290E-6
1.730420,-3.001219E-6,-8.331120E-7
1.731040,-2.849372E-6,-1.478774E-6
1.731660,-2.096090E-6,-1.704904E-6
1.732280,-1.378536E-6,-1.511503E-6
1.732900,-3.051835E-6,-9.342756E-7
1.733520,-3.739614E-6,-2.529090E-7
1.734140,-2.837462E-6,-1.582913E-6
1.734760,-3.837869E-6,-6.307848E-7
1.735380,1.625660E-6,-3.725201E-6
1.736000,1.339830E-7,-2.716540E-6
1.736620,-1.435107E-6,-2.511238E-6
1.737240,4.376778E-7,-3.305669E-6
1.737860,-1.351740E-6,-2.186919E-6
1.738480,-3.453784E-7,-3.701398E-6
1.739100,5.269998E-7,-4.311355E-6
1.739720,2.292598E-7,-3.219383E-6
1.740340,2.087157E-6,-4.730886E-6
1.740960,8.158076E-7,-3.927528E-6
1.741580,-6.192992E-7,-2.918867E-6
1.742200,-5.597512E-7,-2.939695E-6
1.742820,-2.054406E-7,-2.127411E-6
1.743440,4.347004E-7,-3.448489E-6
1.744060,-2.739208E-7,-2.686786E-6
1.744680,-2.673705E-6,-1.327028E-6
1.745300,-2.122886E-6,-1.928059E-6
1.745920,-1.560158E-6,-1.725732E-6
1.746540,-2.084180E-6,-1.701929E-6
1.747160,-2.736231E-6,-1.106849E-6
1.747780,-2.140751E-6,-1.877477E-6
1.748400,-2.611180E-6,-1.026513E-6
1.749020,-3.501422E-6,-7.557516E-7
1.749640,-3.837869E-6,-9.253494E-7
1.750260,-3.209637E-6,-1.919133E-6
1.750880,-1.837056E-6,-1.859625E-6
1.751500,3.870620E-7,-3.689496E-6
1.752120,-1.667344E-7,-2.674885E-6
1.752740,-1.432129E-6,-1.588864E-6
1.753360,-1.950197E-6,-1.951862E-6
1.753980,-4.317230E-7,-3.162850E-6
1.754600,3.870620E-8,-2.445779E-6
1.755220,-3.334688E-7,-3.582382E-6
1.755840,5.418868E-7,-3.624037E-6
1.756460,4.436326E-7,-3.085490E-6
1.757080,1.265395E-6,-4.974869E-6
1.757700,-7.771014E-7,-3.314596E-6
1.758320,1.256463E-6,-3.433612E-6
1.758940,-1.155231E-6,-2.368418E-6
1.759560,-1.411288E-6,-2.764147E-6
1.760180,-6.133444E-7,-3.823389E-6
1.760800,-1.589932E-6,-2.177993E-6
1.761420,-1.524429E-6,-2.746294E-6
1.762040,-2.709434E-6,-2.517188E-6
1.762660,-1.661389E-6,-1.942936E-6
1.763280,-3.069699E-6,-1.222889E-6
1.763900,-2.786846E-6,-2.186919E-6
1.764520,-2.134796E-6,-6.397110E-7
1.765140,-2.864259E-6,-5.177196E-7
1.765760,-2.506971E-6,1.844748E-7
1.766380,-3.608609E-6,-4.463100E-8
1.767000,-3.432942E-6,-1.166357E-6
1.767620,-1.834078E-6,-1.966739E-6
1.768240,-3.763434E-6,-1.160406E-6
1.768860,-3.483558E-6,-9.759312E-7
1.769480,-3.959942E-6,1.487700E-7
1.770100,5.657060E-8,-2.603475E-6
1.770720,2.977400E-9,-2.618352E-6
1.771340,4.853162E-7,-3.180703E-6
1.771960,1.250508E-6,-3.347325E-6
1.772580,1.512519E-6,-2.716540E-6
1.773200,3.840846E-7,-5.236704E-6
1.773820,3.156044E-7,-5.328941E-6
